9559 12
石破天 -0.16430184 0.111656636 -0.1726883 0.35049036 0.42915574 -0.12811914 -0.5675782 -0.2524036 -0.25177374 -1.1855294 -0.29332677 0.34435105
说道 0.124847375 0.06448046 -0.84111154 0.09414866 0.28112838 0.33423278 -0.22617525 0.06883022 -0.35969117 -0.8347869 -0.8795294 -0.17745098
雪山 -0.58219886 -0.03835482 -0.8999344 -0.23335014 0.68734974 0.38251415 -0.21249346 0.65375394 -0.21615988 -0.98058873 -0.6870934 -0.18476078
丁珰 0.15844862 0.54964566 0.020076457 1.0313221 0.95909107 0.4621564 -0.85735476 -0.5952802 -0.17625445 -0.61297226 -0.64132786 -0.3999361
白万剑 -0.85279095 -0.0010981512 -0.6859036 0.082005166 0.4424941 0.31179285 -0.29038647 0.3733452 -0.40007088 -1.0591884 -0.5334096 -0.06589365
石清 -0.522776 0.2012199 -0.30139554 0.4240247 -0.17385289 0.7606669 -0.30118743 0.20332469 -0.2505848 -0.8978066 -0.80220795 -0.82512045
帮主 0.44878927 -0.182767 -1.1214437 0.661661 0.8028495 0.56886494 0.6258076 0.5548598 0.10125734 -0.96469015 -0.83188146 -0.7917761
武功 -0.18242453 0.2532684 -0.80658484 -0.79202175 0.47894907 0.16019933 -0.2164752 0.18552245 -0.07962232 -1.0714027 -0.49253654 -0.34108892
谢烟客 -0.07492212 -0.5379293 -0.87474656 0.110687144 -0.069843635 -0.4672593 -0.66134715 1.0628277 0.962049 -0.3236324 -0.8031291 -1.082048
丁不四 -0.34105825 0.14158672 -0.299108 -0.532788 1.2101477 -1.2520226 -0.44380775 -0.54016554 -0.59607774 -0.64230037 -0.52942574 -0.6489186
二人 0.26358885 0.4959198 -0.2138674 -0.31644183 0.111306846 0.28117913 -0.076701336 -0.1012474 -0.61945117 -1.2649306 -0.55344427 -0.21019325
一声 -0.29059762 -0.50449187 -0.4488565 0.46554846 0.49117142 -0.33020875 -0.70936775 -0.1589326 -0.19991714 -1.1840578 0.22330557 0.057540596
不知 -0.0016281893 0.23054953 -0.27131087 0.2244733 0.4328066 -0.011767841 -0.25819287 -0.01016813 -0.15355979 -0.75385565 -0.82098466 -0.30860364
夫妇 -0.3764064 0.2772847 -0.22349565 0.5827469 0.14951515 0.8441299 -0.54142344 0.3376007 -0.46587 -0.7714492 -0.8215788 -0.3999314
史婆婆 -1.0277723 0.2780437 -0.87745637 -0.6354894 0.6231101 -0.680964 -0.090662815 0.37877926 -0.333564 -1.1129986 -0.9881119 0.20743218
爷爷 -0.11223543 0.32213026 0.1766888 -0.35356262 1.3834547 -0.31144428 -1.0949339 -0.35646483 -0.25701556 -0.7758631 -0.51283425 0.02187698
内力 -0.46033952 0.03914084 0.10787807 -0.22331184 0.16038924 -0.119696796 -0.18758015 0.08244022 0.34470776 -1.5753912 0.27314022 -0.66056883
弟子 -0.24008968 0.47531506 -1.2523978 -0.2703214 0.3259885 0.03143 -0.6351689 0.24630831 -0.48518062 -0.7302766 -0.59088594 0.4076457
贝海石 0.36890233 -0.29910657 -1.0502448 0.68739665 1.010697 0.60512286 0.51675 0.52741593 -0.03737421 -0.8597766 -0.5957987 -0.89721614
少年 0.1257191 0.03874001 -0.5730872 0.42278168 0.20704131 0.5716197 0.16491088 0.24763392 0.23403348 -1.143103 -0.6185469 -0.5306773
闵柔 -0.5909678 0.32153526 -0.17054851 0.7909979 -0.20201369 0.7598401 -0.4470303 0.03059015 -0.15666541 -0.7590777 -0.9189146 -0.868042
心中 -0.15842971 0.320193 -0.040401354 0.33636534 0.27154782 0.014369422 -0.28841028 -0.032703415 -0.1453411 -0.76670355 -0.73638415 -0.59239644
长剑 -1.0259985 -0.060005076 -0.3726103 0.1418401 0.04277077 0.06525469 -0.8537363 -0.217632 -0.16084018 -1.3074657 0.9179775 -0.7785484
丁不三 -0.28908896 0.21150693 0.19358084 0.21548712 1.5834024 -0.3926451 -0.83880454 -0.20025654 0.060121886 -0.5735251 -0.9704209 -0.07104562
长乐 0.39206567 -0.31734645 -0.7848563 0.38296193 0.63721174 0.5976287 0.40360102 0.54786587 -0.23530717 -0.90864325 -0.97179055 -0.9529642
心想 -0.06963899 0.051225223 -0.23384716 0.4526894 0.09999061 0.06719657 -0.66073513 -0.11207186 -0.02758474 -0.9094595 -0.5404582 -0.049604718
剑法 -0.95813555 1.2431327 -0.550606 -0.715824 0.50538236 -0.25023267 -0.088606894 0.2017277 -0.20784923 -1.0478473 0.35314685 -0.5345865
阿绣 -1.0523585 0.6126011 0.013212149 0.36491078 0.6612914 -0.5194905 -0.3903019 -0.14213733 -0.24020293 -1.0885266 -1.1150563 0.44711962
白自在 -0.66242176 0.49837482 -0.34862617 -0.52967024 0.70511544 -0.437277 -0.2714813 0.374322 -0.7115594 -1.0263033 -1.0239582 0.30345994
便是 -0.06300392 0.16304775 -0.65606004 -0.120683976 0.41673318 -0.058117032 -0.35375527 0.20081551 -0.35897455 -0.6215709 -0.5790478 -0.28317901
之中 0.08013813 0.27605465 -0.4434634 0.09053045 0.08479704 0.09044873 -0.40746555 0.21295285 -0.27490935 -0.91593903 -0.41672522 -0.06892396
师父 -0.62102586 0.2676831 -1.1515598 -0.82885617 1.0458148 -0.029199477 -0.6918424 0.8581378 -0.058392707 -0.9883497 -0.9549514 0.62270975
一招 -1.0931178 0.14642137 -0.45778617 -0.16039994 0.603901 -0.6289884 -0.28049847 -0.13084973 0.0065537444 -1.3062828 1.0165831 -1.0620472
两人 -0.23667514 0.4158805 -0.14156 0.50859106 0.46604016 -0.14515564 -0.23543979 -0.20151205 -0.5006979 -0.8069611 -0.2648448 -0.3459401
石中玉 -0.032034513 -0.096849315 -0.36400908 0.29036286 0.5158499 0.7004895 -0.19102056 0.6699219 0.26372048 -1.01221 -0.949576 -0.3975473
脸上 0.025094582 -0.07593793 -0.27830413 0.51393145 0.4121669 -0.3023509 -0.5339798 -0.23131312 -0.35920188 -0.5892981 -0.4980862 -0.50964326
只见 0.16959456 0.23591784 -0.2639154 0.597661 -0.08706557 -0.20447545 -0.71575445 -0.112522066 -0.6479099 -0.9918895 -0.1980164 0.272565
小子 -0.2127486 -0.35020182 -0.55123436 -0.22499554 0.995582 -0.46035528 -0.21368326 -0.09814775 0.060899276 -0.8923598 -0.31188172 -0.49993214
侠客岛 0.73846316 0.24477245 -1.2094086 -0.446619 0.012096941 0.47622082 0.292831 -0.15560664 -0.5346635 -1.2462145 -1.1694571 -0.6942238
身上 0.06450261 -0.09251757 0.064204276 0.32016003 0.10313266 0.19278234 -0.67811155 0.17491817 0.33951378 -1.177088 -0.06899282 -0.17578644
问道 0.02301223 0.21323626 -0.28864682 0.48988676 0.29327008 -0.011623964 -0.45341477 0.12605467 -0.20030521 -0.49790987 -1.2020983 -0.30817738
儿子 -0.78840894 0.32068646 -0.17452179 0.35708955 0.13951004 0.8205129 -0.6898024 0.24955437 -0.3270226 -0.6274239 -1.0408566 -0.8350886
见到 -0.5183451 0.34341356 -0.17602785 0.34020254 0.22440855 -0.2776819 -0.32754302 0.18456495 -0.284333 -0.75788754 -0.855031 -0.12187005
说话 0.081931464 0.2982352 -0.50166017 0.3714319 0.47891402 -0.1427197 -0.5062492 0.2168216 -0.0024838592 -0.4775405 -0.9486802 -0.06795746
师哥 -0.5789744 0.25383803 -1.247589 0.13848177 -0.40435576 0.8905272 -0.8723396 -0.23675388 -0.08969645 -0.7653335 -0.7428272 -0.42514417
登时 -0.21481986 -0.2909743 -0.31687587 0.23316641 0.47863436 -0.100264564 -0.18487903 0.06841216 -0.22426368 -1.158486 -0.27829134 -0.17662777
兄弟 0.43200076 -0.21843694 -0.76773316 -0.2664862 0.82192624 -0.38999027 0.14457184 0.09338028 -0.4932718 -0.714426 -1.0172188 -0.6877318
伸手 -0.024730004 -0.14036374 -0.33816224 0.8749018 -0.20314325 -0.11160417 -0.8428136 -0.3460889 0.05492742 -0.91139454 -0.41046256 -0.090914905
有人 0.30645314 -0.13822128 -0.4850613 0.29381183 0.2020104 -0.16594198 -0.32942113 0.2700031 -0.4264032 -0.84537846 -0.53477484 -0.09298278
身子 -0.22933477 -0.31320405 -0.29501742 0.74793816 0.12842792 -0.42778954 -0.51996154 -0.22310935 0.20934476 -1.288115 0.06515108 0.01814814
凌霄城 -0.5345892 0.24327786 -0.33968684 -0.12873274 0.46864146 0.67929536 -0.4973019 0.8102245 -0.40260097 -0.892123 -1.1455921 -0.20521475
众人 0.16798429 0.007057915 -0.686522 0.022723142 0.37255135 -0.034123138 -0.18976946 -0.00463309 -0.7352237 -0.9214882 -0.39823616 -0.1397691
跟着 -0.24790964 -0.3028567 -0.07662499 0.34055164 0.39559874 -0.45552137 -0.7577238 0.021462195 -0.24892323 -0.9162116 0.06355239 -0.16155566
铜牌 0.78585285 -0.3249947 -1.4387771 -0.10081562 -0.18254977 0.87712693 0.0782351 -0.56653076 -0.37903783 -1.4678622 -0.8316745 -1.1405753
石庄主 -0.32709882 -0.1750378 -0.36657637 0.70853484 0.32856542 0.70612615 -1.1096609 0.5194928 -0.31210604 -0.7494685 -0.80533874 0.18878707
手中 -0.12927017 -0.48491213 -0.56094736 -0.08260983 0.26887622 -0.1493704 -0.6382674 0.19354618 -0.253601 -0.9295628 0.44737497 -0.76404107
两个 0.12535591 0.08438248 -0.99507594 -0.3412005 -0.031981423 0.3556603 -0.26006496 -0.39814338 -0.5528539 -0.9581549 -0.971592 -0.51932204
李四 0.5306909 -0.500161 -0.41042122 -0.27155632 0.023366937 0.3274547 -0.100378916 -0.22586653 -0.78369164 -1.4184588 -1.1125515 -0.72633815
之下 -0.28069374 -0.17733315 -0.22925736 0.07239651 0.24973948 -0.3240383 -0.38962767 0.024829537 -0.091207765 -1.1123286 0.18645796 -0.4307271
心下 -0.42134532 0.071963966 -0.27443075 0.21923031 0.33953765 0.05612352 -0.21410297 0.19780663 -0.2088944 -0.68971086 -0.3522408 -0.9555072
小丐 -0.23527108 0.1452299 -1.0516546 0.7613473 -0.43736655 -1.2850511 -2.037777 0.8228327 1.2251308 0.35497543 -0.59794945 -1.3182604
眼见 -0.36469182 -0.1719877 -0.4781711 -0.06292887 0.31950453 -0.48378575 -0.5229138 -0.35981733 0.104756914 -1.0060457 0.21081828 -0.70742136
石帮主 0.6076509 0.16129576 -0.44852087 0.55675876 0.63083994 0.2705701 0.25028208 0.76882863 -0.23488489 -0.9408148 -0.7424416 -0.17857616
江湖 0.13500465 0.09573414 -0.7990527 -0.09243388 0.24694386 0.4399899 -0.067669176 0.41931766 -0.20969547 -0.6123974 -0.85431665 -1.0040395
性命 -0.11778276 -0.26949844 -0.32202414 -0.030766357 0.4607945 0.37608257 -0.65335596 0.26175994 0.21506834 -0.8017877 -0.68301815 -0.61124676
妈妈 -0.73713666 0.4413817 -0.10163219 1.1060177 -0.15592219 0.07414562 -0.8271843 -0.16791421 0.22462101 -0.30505857 -1.5307834 -1.141587
功夫 -0.1352085 0.29180208 -0.16275051 -0.4302282 0.6962381 -0.49858108 -0.29060125 0.23525038 0.12873511 -0.9375753 0.025038071 -0.48852527
喝道 -0.35201016 -0.590055 -0.8883278 -0.05478063 0.4768178 -0.42521515 -0.9610605 0.023340905 -0.02473114 -0.912129 -0.07866827 0.1348463
两位 0.22373411 0.3368843 -0.6160167 -0.4595893 -0.37685916 0.34337193 -0.47168848 0.015698161 -0.6599106 -1.1334119 -1.0482502 -0.11074277
杂种 -0.12906104 -0.18119958 -0.43317834 0.35352987 0.69609565 -0.32526687 -0.31730747 0.59329623 0.62374145 -0.33843663 -1.2722735 -0.93826133
自然 -0.14528543 0.48774812 -0.27468607 0.20615536 0.39187372 0.09141075 -0.103072196 0.09781418 0.17476706 -0.59805125 -0.81057703 -0.68734175
武林中 0.22593679 0.15179859 -0.99671847 -0.44742858 0.36506444 0.39173162 0.053707477 0.4374376 -0.18194503 -0.78544205 -0.60322607 -0.8458767
左手 0.13178739 -0.43360776 -0.3652476 0.4580508 0.44368902 -0.5387195 -1.2488064 -0.63531715 -0.12732497 -0.9255387 0.51555604 -0.3745193
龙岛主 0.9816087 1.6998018 -0.21582161 -0.48738396 -0.17767087 -0.3126535 -0.49754712 0.23759986 -0.59626853 -1.2243186 -1.0601724 0.5053648
一人 0.18212308 -0.1282994 -0.7679391 -0.087488055 0.21254292 -0.27738178 -0.09494067 0.3684671 -0.6341 -0.74833035 -0.18606442 -0.50503224
之间 -0.09391615 0.08319447 -0.24453744 0.31926295 0.27377665 -0.37477428 -0.08472997 0.052997302 -0.117003195 -0.8291646 -0.22150135 -0.4952067
汉子 0.5055817 -0.48676497 -0.49319655 0.53747606 0.6476974 -0.53165174 -0.67261726 0.27665064 -1.2063649 -0.67444927 -0.15497492 0.030334985
女子 -0.0162838 0.5265265 -0.97558546 0.53589493 0.5436505 -1.0154202 -0.58428866 -0.22055244 -0.6359754 0.075657845 -0.64598536 -0.30581355
双手 0.074449874 -0.32928583 -0.10732158 0.5666978 0.28323084 -0.23326221 -0.9179838 -0.4429714 0.25985742 -0.88494474 -0.2669394 -0.4087146
此刻 -0.5903486 0.17031723 -0.24024226 -0.05141463 0.3151719 -0.007286343 -0.2007766 0.60977364 -0.24747075 -0.87038606 -0.7146894 -0.25478798
右手 0.17034115 -0.39292672 -0.34986213 0.4511752 0.24962498 -0.50730056 -1.0273271 -0.7159544 0.16082674 -1.1647234 0.53982204 -0.32778487
大声 0.0760399 -0.250808 -0.69742167 -0.0016148812 0.7014267 -0.13901263 -0.6752933 -0.07072376 -0.21386525 -0.5902528 -0.2653056 -0.31146082
师弟 -0.66368425 0.37968278 -1.4378023 -0.22655363 -0.039347284 0.7337078 -0.5583142 -0.2374628 -0.21670198 -1.0737977 -0.21303087 -0.10332674
本来 -0.09749528 0.35541347 -0.16786383 0.19993109 0.39677972 0.2633607 0.044617057 0.5103467 0.10185543 -0.9018312 -0.45349026 -0.6127826
今日 -0.35255402 0.036437824 -0.50805223 -0.09056476 0.42903748 -0.23794855 -0.22673722 0.53592014 -0.49263775 -0.56899 -0.72130716 -0.48005894
掌门人 0.45466873 -0.07304029 -1.6356984 -1.0201565 0.81551194 0.07645964 -0.6742388 0.036846638 -0.5897417 -0.98460823 -0.38984716 0.14518583
来到 0.51853967 0.25031635 -0.51726675 0.27173388 0.4957729 -0.031917322 -0.080220185 0.5938716 -0.7668743 -0.5492047 -0.6088208 -0.2855451
不到 -0.11558959 0.18449259 -0.4066123 0.14445104 0.36170572 0.07148985 -0.32399654 0.3346852 0.09999645 -0.84877604 -0.5553418 -0.0907178
内功 0.29988864 0.58639956 -0.18423347 -0.7243393 -0.20601805 -0.15654454 -0.27319705 0.6490649 0.74632144 -1.5556918 0.102426924 -0.2686026
明白 0.043250956 0.4394953 -0.20248583 0.30917507 0.48446155 0.34169537 -0.22515863 0.31217077 -0.055229172 -0.5920151 -0.76361775 -0.62500656
低声 0.2719732 0.2827458 -0.20780073 1.1147999 0.5441367 0.12966585 -0.45813194 -0.13862737 0.28514603 -0.83642125 -0.82866913 0.03603997
丁丁当当 -0.109613486 0.45608962 0.3057808 0.7258113 1.0472391 0.15947388 -0.9217973 -0.59729564 0.33348915 -0.774041 -0.9062525 -0.13938907
朋友 0.14483917 -0.2855925 -0.69615245 0.48325405 0.616331 0.16971932 -0.31327823 0.70177925 -0.8876454 -0.47747326 -0.32976308 -0.5796979
点头 -0.24858238 0.1792801 -0.7847312 0.4534912 0.45970678 0.3240034 -0.12272544 0.48137766 -0.036984354 -0.6488399 -0.7483384 -0.2896275
却是 -0.10048827 0.14878163 -0.43027872 -0.08313125 0.0847752 -0.13797969 -0.5248109 0.2547602 -0.24152012 -0.86877096 -0.080770314 -0.18899985
冲虚 -1.2899569 0.12045608 -0.506176 0.5445123 -0.43639168 0.5093538 -0.8657945 -1.0140475 0.2145482 -1.3999405 0.22517407 -1.311082
怒道 -0.61242414 0.33501258 -0.5672604 -0.24864402 1.0153887 -0.5751483 -0.8479032 0.01535827 0.39591286 -0.6512318 -0.8764787 0.41023535
这位 -0.18111682 0.4685046 -0.530181 0.04276768 0.58395875 -0.02742585 -0.44009098 0.22369382 0.2656186 -0.5909996 -1.0178245 -0.14956905
一剑 -1.3431033 -0.008898425 -0.3139159 0.117562614 0.23682979 -0.07057978 -0.98566294 -0.22036338 -0.08017286 -1.1713241 0.7878036 -0.82920724
封万里 -0.8813028 0.1405285 -1.3755875 -0.41910487 0.20707619 0.39743996 -0.8588346 0.5660562 -0.13869454 -1.0631618 -0.8444696 0.42598173
老妇 -0.6652364 0.7388504 0.1566598 -0.013717686 1.2161422 -1.8286093 -0.5764903 -0.31124932 0.83571786 -1.1616198 -0.58570987 0.32422146
出手 -0.45573276 -0.254174 -0.403906 -0.16142534 0.39454302 0.08611664 -0.50536275 -0.00077933504 -0.010252787 -1.05212 -0.10310347 -0.54000425
厉害 -0.69910085 0.15615179 -0.4023655 0.043052156 0.29202834 -0.22642365 -0.3855216 -0.18250221 0.29099008 -0.91287816 -0.543745 -0.41379392
瞧瞧 -0.18964522 0.25288644 -0.7569368 0.4340326 0.19582216 0.0542533 -0.5463204 0.2548521 0.22640538 -0.72549987 -0.53267765 0.24953088
动手 -0.4733042 -0.051228486 -0.6823888 -0.2360932 0.35312602 0.2217719 -0.27989587 -0.4222234 0.14940743 -1.0667742 -0.22291353 -0.71914
摇头 -0.20485456 0.6294553 -0.419009 0.25656238 0.043194704 0.13718593 -0.8365726 0.14534518 0.076323345 -0.22790864 -0.84025896 -0.4680874
侍剑 0.7371408 0.5319383 -0.08053674 2.2251031 0.93245554 -0.13325898 -0.06267735 0.5365407 1.0021365 -1.1608237 -0.5740791 0.22267632
爹爹 -1.1137768 0.15219784 -0.42064628 0.8001963 -0.022993263 0.42304173 -0.5561938 -0.24224451 -0.5902064 -0.88604516 -1.2113155 -0.35904363
奶奶 -0.95731443 0.9536247 -0.30399492 -0.063464954 0.9856931 -1.1473209 -0.60931784 -0.35277417 0.14041463 -0.6783494 -1.2494161 0.36863747
全身 -0.010031669 0.1408262 0.16663308 0.5415769 0.14866276 -0.6504933 -0.37850395 0.19154532 0.26828402 -1.1706848 -0.1578524 0.08112227
地下 -0.6204316 0.028303105 -0.42927697 0.7241536 -0.12655926 -0.30321252 -0.6669157 0.45559826 -0.3783629 -0.92574966 0.23356096 0.07282493
耿万钟 -0.5603992 -0.44885886 -0.29394403 0.0065018707 0.5141981 0.13386373 -1.3953342 1.7174106 -0.073833965 -0.34754565 -0.5264414 -0.45626026
清道 -0.2531368 0.2539531 -1.1408665 0.014362326 -0.49342477 0.91374594 -0.39644477 0.16687831 -0.48710692 -0.69434714 -1.2353697 -1.1153864
声音 0.25134486 0.13774464 -0.38683283 0.6102741 0.37610072 -0.4433746 -0.7343669 -0.061878208 -0.30318072 -0.49129865 -0.8449836 0.16461398
适才 -0.19775043 -0.15792075 -0.16233112 -0.0024972039 0.28218013 0.16983745 -0.40854776 0.20043483 -0.27596566 -1.0151759 0.15082914 -0.8592079
花万紫 -0.38134494 -0.6296807 -0.85016507 0.5673972 0.6249048 -0.41907436 -1.0834287 1.3995306 0.03110876 -0.10115284 -0.18291827 -0.46861216
张三 0.64779043 -0.688643 -0.23461296 -0.19430958 0.09829165 0.06648857 -0.20431699 -0.3976581 -0.810379 -1.4709821 -0.96357995 -0.70010513
一条 0.32040963 -0.32409984 -0.108830445 0.24471554 0.4882001 -0.07317076 -1.2397162 0.19555627 -0.30303615 -0.6969186 -0.22420035 0.09986087
轻轻 -0.059453256 0.18794492 -0.2104611 1.1310807 0.043123502 -0.26458758 -0.7726455 -0.27012774 0.19230036 -0.9929337 -0.06460347 0.25016832
不住 -0.44538227 0.09654384 -0.18736915 0.32317722 0.009488944 -0.5720127 -0.39424384 0.06425609 0.18741554 -0.9042785 -0.2016894 -0.22939968
真的 -0.3485418 0.23854603 0.0061424305 0.5377607 0.53820163 0.3789669 -0.6053951 0.14619218 0.22309463 -0.7171747 -0.7611237 -0.3299857
刀法 -1.5657134 0.8084404 0.08516534 -0.107507475 0.356604 -0.85820615 0.21494368 -0.09136584 -0.45362765 -1.382456 0.16756861 -1.2967107
那小丐 -0.23304063 -0.13961558 -1.1312177 0.6453547 -0.77256936 -1.4037786 -1.895738 0.6866222 0.76782244 0.120083526 -0.5415439 -1.2961732
之上 -0.07683114 -0.01734226 -0.07370942 -0.016333444 0.36284748 -0.15741488 -0.51502407 0.25598216 0.0046765716 -1.2958508 0.2761095 0.07902154
听到 -0.016690195 -0.059793204 -0.41891286 0.5354743 0.1911803 -0.070738964 -0.536552 0.08271694 -0.21488218 -0.5887417 -0.8173926 -0.31583527
姑娘 -0.6576604 0.7468159 -0.460818 1.0925641 0.57339036 -0.67474365 -0.8139174 0.05179099 0.0987551 -0.16889091 -1.2261645 0.31244648
一句 0.06627171 0.39030343 -0.24295156 0.09106225 0.25793144 -0.3522096 -0.33006966 0.85936666 -0.20950334 -0.4747694 -0.48535722 -0.24322797
之极 0.070383646 -0.39229172 0.16500865 0.1387251 0.5563121 -0.50813705 -0.38779482 0.44748414 0.2885154 -0.9528423 -0.13165095 -0.6642597
之意 -0.26843092 0.28380132 -0.27790233 0.29047865 0.10431288 0.04854817 -0.25370437 0.0722953 -0.17546634 -0.6794854 -0.40798578 -0.7826713
高三娘子 0.83379376 -0.19188426 -0.45717472 0.14402516 1.6536387 -0.75712204 -0.7178827 -0.67098385 -0.9337898 -0.4902418 -0.025127934 -0.8718564
不用 -0.32640794 0.116905786 -0.31547773 0.5131996 0.3650022 -0.020282423 -0.4891714 0.0809024 0.12556915 -0.6236961 -0.8349442 -0.17939489
石夫人 -0.74377906 -0.090697676 -0.5303146 0.7631083 -0.38986626 0.7226191 -0.9960791 -0.06321998 -0.1243389 -0.9219199 -0.70136327 -0.2103986
不禁 -0.26437512 0.285677 -0.27470016 0.45729768 -0.09413602 0.10623561 -0.27659497 0.24785478 0.16978976 -0.75897056 -0.81272686 -0.4822844
心道 -0.0026052576 -0.085412316 -0.51605546 0.77454436 0.31892836 -0.40859452 -0.55055076 0.5517064 0.79417807 -0.48820812 -0.6004251 -0.22532357
天哥 0.13778473 0.44332987 0.26421568 1.0939187 1.2536325 0.5840336 -1.0314637 -0.5703414 0.2409406 -0.6590086 -0.9173373 -0.29191256
铁叉 0.6344372 -0.95073044 -0.33657432 0.020773543 -0.034577984 -0.66013616 0.11177425 -0.63331777 -0.7322562 -1.8148521 -0.4897698 -0.8125748
不见 -0.161665 0.16322106 0.04022032 0.614594 0.25316462 -0.4150672 -0.21142581 0.39650342 -0.69462043 -0.5379029 -1.410979 -0.32136068
三个 0.017089332 0.3429735 -0.2469065 0.3136308 0.4056133 -0.042234495 -0.56503856 0.010825798 -0.93310565 -0.57581663 -0.5291463 -0.17452109
想到 -0.14396228 0.18781756 -0.11420911 0.43434536 0.055490702 0.18497801 -0.08292815 0.3226683 0.0037338668 -0.9995418 -0.88441235 -0.30894098
穴道 -0.1201776 0.6901034 0.3782335 0.6661284 0.09415275 0.4489985 -0.7809724 0.56902474 0.46956193 -1.7107847 0.7224641 0.38974687
这才 -0.13640356 0.08789761 -0.459505 0.18548688 0.27977195 0.0812079 -0.3103762 0.22522716 -0.009957422 -0.8719805 -0.28562084 -0.22397628
只觉 -0.25291243 0.08708314 0.6888824 0.6559882 -0.0832224 -0.007859834 -0.6316219 0.32815996 0.05417041 -1.2429143 0.15400626 -0.49807942
一眼 -0.21128719 0.34432688 -0.027426815 0.57410616 0.1912457 0.07681951 -0.36006483 0.21942423 -0.2515891 -0.74057984 -0.75079 -0.21220626
大哥 -0.16811113 0.095320694 -0.16120262 0.2703496 0.4237155 -0.469097 0.21356566 -0.39591002 -0.17700534 -1.175657 -1.1125122 -0.23325835
老者 0.5124942 -0.09757045 -0.5050034 0.3161703 -0.029437251 -0.43136847 -1.095797 -0.011378816 -0.56960005 -0.9377204 0.44726235 0.19571933
声响 -0.02436371 -0.7242708 -0.15374903 0.5729549 0.38606587 -0.5217067 -0.76750934 0.016530873 -0.45095026 -1.0609634 0.2746445 -0.31741533
王万仞 -0.42372397 -0.81118155 -0.4483322 -0.06534783 0.910334 0.1301211 -1.6271173 1.1685764 -0.37991166 -0.2788371 -0.7781058 -0.43317804
一步 -0.32533386 -0.4212091 -0.34498197 0.18271817 0.3516564 -0.29956567 -0.645311 -0.24219029 -0.28280085 -0.8129875 -0.46685565 -0.40143973
手掌 -0.44344845 -0.41216028 0.108952194 0.33563152 0.19161639 -0.6852032 -0.7988922 -0.55140066 0.58022237 -1.2571708 -0.003509638 -0.52382237
脸色 -0.4204052 -0.018906457 -0.338549 0.9043511 0.16913535 -0.27188554 -0.06220961 0.47717735 -0.18088627 -0.88596606 -0.568626 -0.009534832
吴道通 -0.29760328 0.07674018 -1.3271643 1.0628983 -0.69706345 -1.0280695 -1.700281 0.8780495 -0.52682287 0.06278459 0.08874053 -0.5469385
三人 0.055239115 0.127296 0.018214218 -0.14983615 0.36835998 -0.23444098 -0.63273454 0.09478637 -0.7727944 -0.84051174 -0.20380683 -0.36855313
丈夫 -1.2165703 0.32523808 -0.16002975 -0.1562177 0.15191141 0.29431245 -0.681819 0.6628535 -0.30556554 -0.9240728 -0.88904107 -0.33509177
肩头 -0.3348193 -0.4095608 -0.18646722 0.8846864 0.26737386 -0.012925168 -0.5744873 -0.5031488 0.33936277 -1.36148 0.4293677 -0.36089492
少女 0.6522359 0.868515 -0.19845983 2.3705213 0.10177345 -1.0322788 -0.096928686 -0.2687615 0.32131594 -0.46476942 -1.0754482 -0.39325607
胸口 -0.710043 -0.84701604 -0.2668183 0.3838578 0.13830854 -0.51089406 -0.8703302 0.03046312 0.20486708 -1.3204966 0.89255655 -0.9698231
不肯 0.051814936 0.21098268 -0.55799603 0.028494915 0.38896078 0.08613467 -0.30524758 -0.012719665 0.18339676 -0.76865095 -0.9552916 -0.23275894
英雄 0.1864355 -0.20364949 -0.75449806 -0.1641526 1.1864973 0.24824147 -0.073007554 0.2655209 -0.3384497 -0.90430933 -0.7768376 -0.23977737
烧饼 -0.112790234 0.18386593 -1.6008351 1.0995991 -1.1913233 -2.1043115 -1.4464562 1.0194967 -0.05318213 0.060328253 -0.20405896 -0.49979094
随即 -0.4326872 0.06379683 -0.35645702 0.69522554 0.14285578 -0.6670516 -0.9127482 -0.16601025 0.012969718 -0.4496865 -0.19255517 -0.323645
一笑 0.31975207 0.22671947 -0.13034616 0.5794113 0.3550623 0.035096798 -0.49474585 0.002902562 -0.3011358 -0.5311981 -0.8941084 -0.3039747
地道 0.04006729 -0.45190543 -0.5132364 0.25069016 0.57432073 -0.46044913 -0.38146764 0.06384225 0.09120658 -0.8069206 -0.7497165 -0.15895022
口气 -0.41541475 0.35530156 -0.19478455 0.48717394 0.14058931 0.1505816 -0.33473232 -0.22737567 0.34705845 -1.0243685 -0.6054662 -0.25631604
不错 -0.22021987 0.10713006 -0.6638708 -0.10667961 0.623669 0.316221 -0.6531522 0.24324524 -0.07666306 -0.44842198 -0.76904136 -0.47177783
孩儿 -0.77746856 0.05677137 -0.57490665 0.6381247 0.16387898 0.5433302 -0.5422607 0.18199201 -0.10371774 -0.6198819 -1.1614664 -0.5556253
声道 -0.08122425 -0.19208683 -0.7736166 0.7555761 0.4483292 -0.12701967 -0.3770283 -0.12438481 -0.3770161 -0.4811861 -0.7564779 -0.32698867
关东 1.1031163 -0.12739912 -0.78461134 -0.03925475 1.7426574 -0.26965997 -0.79209584 -0.2210686 -0.6960987 -0.25452727 -0.14083356 -1.0232062
范一飞 0.792693 -0.124562874 -0.8513766 0.078005515 1.3578622 -0.6019713 -0.57114863 -0.59650034 -0.88811743 -0.42436114 0.124272294 -1.0150611
只得 -0.28729865 -0.35109228 -0.39438397 0.29025227 0.377462 -0.38936523 -0.24427728 0.16025688 0.22205308 -1.2589811 -0.20056856 0.07306176
一口 0.66436875 0.054237116 0.13984483 0.30375642 -0.11563872 -0.50999933 -0.37602976 -0.41651314 -0.15495755 -0.90525234 -0.6450356 -0.80502707
此事 -0.048668243 -0.12556972 -1.1351249 -0.26388663 0.26510864 0.3663502 -0.4622004 0.7411511 0.18391816 -0.54572505 -1.1064433 -0.43426633
岛主 0.8235128 1.0838882 -0.013458019 -0.47543234 -0.3997557 -0.099995606 -0.5572573 0.33225048 -0.74477565 -1.4460696 -0.93225014 0.455335
陈冲之 0.71082926 -0.42828244 -1.0035151 1.4791412 1.271664 -0.21780865 -0.4950228 0.6346027 -0.27862924 -0.61204886 0.03184723 0.34684396
大伙儿 0.18626755 -0.09768044 -1.5828995 -0.49840704 0.41373196 -0.016131537 -0.029285114 0.1950808 0.13262834 -1.0190403 -0.98564965 0.049474165
得罪 -0.4384982 0.006296385 -0.8877321 0.5946545 0.3456198 0.55937994 -0.41103816 0.5232668 0.20751251 -0.7887011 -0.7156083 -0.121114865
白痴 -0.31843296 1.2416098 0.31593132 0.123875804 1.5780392 -0.16058019 -1.8014281 -0.4323116 0.8707752 -0.18138863 -0.9888446 -0.35569796
玉儿 -0.78679186 0.48031583 -0.17334574 0.98877025 -0.39538774 1.0991491 -0.3429352 0.29229945 -0.27214503 -0.9070495 -1.0679772 -1.1348264
当年 -0.26292768 0.33578128 -0.2789945 -0.00024312583 -0.16515063 -0.113430016 -0.39482853 1.1501293 0.056551885 -0.42125311 -0.48970497 -0.91894424
兵刃 0.020069811 -0.48312107 -0.46131063 0.20908928 0.40507638 -0.0094379755 -0.93141013 0.17029388 -0.5781541 -0.7626144 0.45063022 -0.6074482
抓住 -0.28964266 -0.6071853 -0.11034587 0.608458 0.47705573 -0.3530131 -1.0321618 -0.39966977 0.25484064 -1.3544639 0.2892625 0.000608951
神色 0.022668025 0.45411962 -0.4105682 0.75420827 0.14713588 -0.11345263 -0.045297828 0.24998976 -0.304693 -0.68415004 -0.58665335 -0.12618332
杀人 0.4291729 -0.3609097 -0.024762165 0.5979588 0.7857529 -0.014989348 -0.8862897 0.10960528 0.23063807 -0.7192784 -0.5919566 -0.13361724
石壁 0.42397764 1.1744276 0.26179525 0.24585162 0.016390748 -0.17607164 -0.4056642 0.7733311 -0.5804631 -1.7104801 -0.074242644 0.9787089
掌门 -0.03202042 0.016857002 -1.8996098 -0.89048654 0.058893908 0.2903302 -0.6022663 -0.4837484 -0.20539278 -1.1718441 -0.61835164 0.053785425
听得 -0.030477379 -0.08962764 -0.22453997 0.59332407 0.4323568 -0.17971693 -0.37777904 0.23787025 -0.3298187 -0.8581787 -0.32502514 -0.017714167
孩子 -1.0572066 0.6555337 -0.37613004 0.86125934 -0.083553806 0.7301032 -0.38674474 0.2753566 -0.12900943 -0.48618603 -1.0232519 -1.1625482
不好 -0.23503174 0.37050214 -0.1384853 0.33744705 0.25753945 -0.20319967 -0.45971847 -0.07236362 0.12176726 -0.48425612 -0.8950432 -0.604538
手臂 -0.26083076 -0.34102437 -0.09747588 0.8737198 0.5000299 -0.47047177 -0.6237003 -0.06562187 0.2964576 -1.3297846 0.20066632 0.27736187
母亲 -0.51252025 0.115406476 0.04822171 0.4133773 -0.5137676 -0.47115523 -0.53294635 0.8668145 0.49823785 -0.5133745 -1.3887333 -0.7539151
人物 0.32586098 0.5707119 -0.85334384 -0.15954411 0.5662396 0.13220493 -0.21772559 0.32502064 0.29776055 -0.2194324 -0.08452139 -1.349572
东西 0.14992842 0.0903355 -0.5810802 1.0275091 -0.011960166 -0.48834032 -0.64100665 0.5057185 0.629244 -0.40018442 -0.81568825 -0.12081417
之际 -0.28431228 0.19482759 -0.4987831 0.24679525 0.20786144 -0.11408529 -0.27561712 0.21732953 -0.065008886 -0.65458804 0.17677805 -0.987985
父母 -0.46285784 0.33930942 -0.020982653 0.35457408 0.9941773 0.7565178 -0.32926852 0.5120986 -0.6151704 -0.52234894 -0.78082484 -0.95698184
冷笑 0.27075952 -0.3521031 -0.6836679 0.14828886 0.8330765 -0.5633802 -0.40413666 0.26362303 0.17972562 -0.6219919 -0.6329062 -0.10231004
缓缓 -0.34972602 0.24236244 0.24041529 0.24639353 -0.37559232 -0.22104111 -0.51029015 -0.099765606 0.13742717 -1.2856331 -0.2942946 -0.25808695
一刀 -0.5885729 -0.49428153 -0.12448233 0.5740059 0.7471819 -1.0464965 -0.95131457 -0.038233183 0.06355057 -0.535983 0.3912662 -0.9382491
半点 0.2634456 -0.0012624757 -0.66591537 0.28931692 0.41689104 -0.1437706 -0.19452178 -0.075822994 0.18903314 -0.9883653 -0.18239394 -0.15810096
转头 -0.21002702 0.2846689 -0.15963703 0.6239367 0.19508171 0.13433778 -0.49748 0.36886957 -0.3237791 -0.64915746 -0.6209105 -0.091164164
想起 -0.46420458 -0.0031167734 -0.10598595 0.2713268 0.33911008 -0.38369215 -0.020739416 0.17546281 -0.30331126 -0.8505704 -0.6753313 -0.5259304
天下 0.025093468 0.28095478 -0.5914623 -0.21805291 0.08851461 0.051419344 -0.79900676 0.18474913 -0.029070986 -0.3962386 -0.85908633 -0.3444092
师兄 -0.7848455 -0.19961604 -1.1039555 -0.26685908 -0.44257298 0.70883024 -1.0365909 -0.09505984 -0.026627589 -1.0116743 -0.35353217 -0.6419115
回来 -0.31601104 0.07535325 -0.8531977 0.59415245 0.23161665 0.016685767 -0.08885929 0.2852971 -0.32104662 -0.78388965 -1.2226504 0.10043711
言语 -0.21619037 -0.12015162 -0.5487443 -0.17415634 0.55376375 -0.0034250733 -0.5484706 0.60024565 -0.26177952 -0.4639485 -0.838277 -0.5801639
一阵 -0.009682039 -0.035803914 0.6446911 0.4812025 -0.038131814 -0.58328575 -0.7554482 -0.038846318 -0.08311006 -1.1320223 0.08732464 -0.44344255
多半 0.30830738 0.2530877 -0.5810975 0.06869068 0.14306423 0.21177147 -0.28980294 0.17789751 0.17271124 -0.7492902 -0.59228814 -0.41974267
丝毫 -0.35989973 -0.10191305 -0.21746904 -0.18718669 0.38307625 -0.081630796 -0.32092115 0.4904939 -0.11808487 -0.993932 0.404956 -0.82144773
眼前 -0.04869686 -0.2814689 -0.09100896 0.42678624 -0.014506733 -0.39945033 -0.2742831 0.43943503 -0.38787666 -1.084607 -0.11930504 -0.16819094
慢慢 0.13889909 0.54715055 -0.08324509 0.67198306 0.27640975 -0.32030478 -0.6361853 0.25602695 0.06510952 -0.6477639 -0.5341784 0.22207223
名字 -0.26954785 -0.030965725 -0.3780776 0.51598364 1.0537521 -0.23357186 -0.4725865 0.6089569 0.12597218 -0.034015592 -1.7283559 -0.7074409
再也 -0.32354313 0.082186446 -0.050010316 0.54934955 0.3028352 -0.072902344 -0.5145037 0.19193919 0.022802074 -0.7949638 -0.40732557 -0.18695644
这件 0.1691724 0.2568224 -1.2583125 -0.20493658 0.16210543 0.6773635 -0.4448072 0.17658648 0.3327846 -0.6731805 -1.1156336 -0.43859246
师妹 -0.832827 0.07025938 -0.8792112 0.82773393 -0.5458745 0.6290874 -0.60924757 -0.06943763 -0.3855854 -0.6448036 -0.43413502 -1.2035005
寻思 -0.04277813 0.23258483 -0.32553294 0.1689075 -0.29519957 0.23639175 -0.7052683 0.28323472 0.082153834 -0.7507506 -0.6136969 -0.2198231
忍不住 0.06871498 -0.07379903 0.1262593 0.72890955 0.3458151 -0.46102387 -0.49773955 -0.06865717 0.14248055 -0.6661318 -0.3739476 -0.577889
谢先生 0.146338 -0.7451282 -1.2950778 -0.03281312 0.100059286 -0.28073615 -0.22499861 1.8027987 0.45276552 -0.5874247 -0.56191057 -0.957054
总舵 0.35147652 0.22068918 -1.1321803 0.5329383 0.91682297 0.4500881 0.7077381 0.42492002 -0.26165918 -0.8377069 -0.44361117 -0.8938751
始终 -0.2710124 0.18870175 -0.306334 -0.04839726 -0.18796036 -0.2414271 -0.51607 0.405076 0.18045783 -0.74987775 -0.39705262 -0.38388532
微笑 -0.080069564 0.4389689 -0.23597264 0.8501396 0.13047795 0.1574459 -0.37508038 0.39800566 -0.03072519 -0.7013975 -0.72689813 -0.010747695
说不定 -0.13055675 0.1110205 -0.6760718 0.2676478 -0.17246383 0.4225224 -0.91695976 0.36066785 0.3639769 -0.62179834 -1.0812794 -0.13964108
武林 0.25294745 0.62456644 -0.87600756 -0.5823695 -0.038706604 0.43360138 -0.07475405 0.34844053 -0.12862214 -0.7823073 -0.7544863 -0.82187843
瘦子 1.0381234 -0.61401564 0.5681412 -0.3089998 -0.5402888 -0.4232419 -1.1017588 -0.14362329 0.30699006 -1.2489452 -0.72102034 -1.1874515
一掌 -0.059559956 -0.34673133 -0.40040132 0.06308529 0.7308607 -0.7010137 -0.13489194 0.1475854 1.0352651 -1.4008054 0.0054781237 -0.12325245
清观 -0.48225534 0.08236831 -0.93141556 -0.073661424 -0.5764707 0.56306994 -0.21644804 -0.9012676 -0.19931388 -1.2426317 -0.28377748 -1.5941498
一惊 -0.24366416 -0.10278283 -0.38429284 0.50008124 0.24579468 -0.32809556 -0.46419355 -0.0011742397 -0.3579226 -0.7986638 -0.2480027 -0.23022015
高手 -0.028690396 0.3764201 -0.7066006 -0.65504295 0.16421406 0.27908877 0.01775772 -0.12603699 0.045040764 -1.2729264 0.30642834 -0.9522976
岛上 -0.25308952 0.8872105 -0.062345617 -0.3660485 0.29173997 -0.574923 0.24133141 -0.2522414 -0.90599626 -1.2665756 -0.9358456 -0.10929328
金乌派 -1.3700316 0.5197002 -0.4045084 -0.58960587 0.89090705 -0.7177034 0.21009253 -0.00985819 -0.4448658 -0.8774697 -1.2354614 -0.7307614
小说 1.7459604 2.6312964 -1.008122 0.85996944 0.7119421 -0.57943577 -1.4440972 1.1887703 -0.3457848 0.2695352 1.1889511 -2.0712926
单刀 -0.16841073 -0.49584037 -0.29212445 0.54332906 0.55028135 -1.0375142 -1.262271 -0.34861177 -0.8386094 -0.74464387 0.6345431 -0.5726346
哈哈大笑 -0.14041719 0.03148877 -0.29531237 -0.26681167 0.80372447 -0.57016414 -0.6591497 -0.078511156 -0.19915026 -0.50450885 -0.94310886 -0.29548085
好生 -0.19865742 -0.013065618 -0.39360142 0.4459211 0.3598877 0.18624881 -0.16643454 0.4612473 -0.25534573 -0.64554816 -0.88297606 -0.5196703
一只 0.47186333 0.1012764 -0.011072766 0.9310547 0.26364517 -0.78710246 -0.8635616 -0.06368822 -0.047782008 -0.91701186 -0.61351126 0.52811116
不及 -0.5215148 -0.0050182114 -0.7148014 -0.20422867 0.14112628 -0.5242188 -0.61958236 -0.12987457 -0.054756716 -0.81676334 0.10824693 -0.3855929
年纪 0.057380863 0.2901341 -0.7166914 0.4667917 0.22942667 0.49156326 -0.3624483 0.30045128 -0.10121166 -0.42619386 -0.6372865 -0.6332416
此人 -0.08260829 -0.37189516 -0.23705536 -0.22268265 0.62496865 0.036264393 -0.7787452 0.77902377 0.21968916 -0.60043555 -0.3975379 -0.5324257
这句 -0.45896104 0.13371253 -0.61146116 0.4407501 0.8218345 -0.07702376 -0.52732813 0.53929365 0.55607253 -0.4287093 -0.56979275 -0.29943758
葫芦 1.1713415 -0.09986268 1.4279135 -0.4740679 -0.6367362 -0.57194644 -1.4330103 -0.49463847 -0.5681002 -1.4481554 -1.2924482 -1.5854686
老人 -0.26401824 0.64632374 -0.43945512 0.27029696 0.9041278 -1.2836795 -0.5306814 -0.45458403 0.79363066 -0.8690992 -0.80893254 0.5392378
目光 -0.11213763 0.1284636 -0.17182413 0.4151448 0.02120344 -0.112204485 -0.47587222 0.10543835 -0.581488 -1.0601063 -0.3352671 0.20950556
暗暗 -0.5051495 -0.20247082 -0.1724804 -0.15688396 0.52424985 -0.15726121 -0.45350564 0.12956694 -0.21753643 -0.87008196 0.22327182 -1.1163363
一股 -0.106242895 -0.1286997 0.59666383 0.7817547 -0.067501865 -0.395082 -0.2277002 0.024065105 0.20936623 -1.3114661 0.3644768 -1.0194627
经脉 0.05486484 1.2994828 0.7708475 -0.34143963 -0.2049753 -1.39854 0.050948497 0.7725173 1.0731313 -1.7673706 -0.54474354 -0.14209738
飞刀 0.87748176 -0.7693935 -0.33458778 0.14585295 1.3504413 -1.1562315 -1.1667271 -0.71074784 -0.30407402 -0.9007251 0.7077174 -1.2249117
第一 0.3723436 0.9158512 -0.578967 -1.5669413 0.8635747 -0.04882905 -0.87733614 1.2683084 0.39882696 -1.8890127 0.0061029787 0.9059047
大叫 -0.2912655 -0.26270124 -0.2304794 0.67455333 0.09334382 -0.9054856 -0.24166958 -0.40702143 0.013923241 -1.1632519 -0.026803348 -0.33593825
转身 0.06254005 -0.5404852 -0.87209123 0.6162237 0.014186544 -0.0747892 -0.4256177 0.46735814 -0.32920986 -0.92001575 -0.24667469 0.009709558
之声 0.30467543 -0.17020267 -0.2602235 0.47823164 -0.059088595 -0.7586978 -0.7741706 0.109580696 -0.71337974 -1.1098967 -0.11867313 0.52176714
微微 0.059575442 -0.39950165 -0.113878734 0.9146384 0.3193602 -0.19551279 -0.40372378 0.27963293 -0.04314852 -0.68814486 -0.31521168 -0.59590876
怎地 -0.16001768 0.37241417 -0.69399226 0.3245274 0.2576186 -0.23372082 -0.4194696 0.13416031 -0.18135285 -0.55616903 -0.7529967 0.07386676
只须 -0.1254708 0.26900262 -0.5502966 0.02470161 0.46144733 -0.22560182 -0.59146214 0.40800637 0.86255306 -0.54956096 -0.27382687 -0.34722152
玄铁令 -0.05879853 -0.5259246 -1.2411543 0.007449521 -0.34732696 -0.669369 -0.9301041 1.5630305 0.5166545 -0.03772577 -0.7233624 -1.3856479
只道 0.024067925 0.32471383 -0.22433753 0.3820116 0.38434425 0.0280296 0.02210548 0.2743165 0.18181685 -0.795744 -0.7580547 -0.37271497
帮中 0.2592462 -0.015262777 -1.0379983 0.83218277 0.65781903 0.61211234 0.57987624 0.4650286 0.06541203 -0.93792593 -0.501283 -0.7918922
师傅 -0.70237243 0.4634373 -0.08613059 0.2829715 1.0687503 0.58432484 -0.6930654 0.068589546 -0.22525224 -0.6313228 -0.6265746 -0.5709732
头顶 0.20932625 -0.33104983 -0.23266304 0.4931567 -0.046444703 -0.63890463 -0.41119376 -0.26183364 0.45512295 -1.2397459 0.17482892 -0.3906379
坐在 0.23736262 -0.003998927 -0.21820651 0.9932164 -0.10744344 -0.21311435 -0.32363573 -0.002815226 -0.3851979 -0.88961196 -0.44797507 -0.0299408
死尸 0.10661131 0.27631983 -1.2326981 0.61535 -1.210932 -1.5212551 -0.2764023 -0.77739894 -0.43736723 -0.89036775 -0.80624884 -0.104875095
显是 0.11514227 -0.2176221 -0.15549204 0.6219694 0.343554 -0.0015557858 -0.46714994 0.43074077 -0.54267687 -0.7708207 -0.20806326 -0.32207474
提起 -0.45456362 -0.26659468 -0.27517176 0.48427147 0.30717653 -0.58435625 -0.5719708 -0.21791784 0.25631893 -1.1256461 -0.25948074 0.05683364
欢喜 -0.36193117 0.5264173 0.22057764 0.78284353 0.202899 0.05050724 -0.25266045 0.3167112 -0.25663412 -0.68737227 -1.2020607 -0.2929421
终于 -0.009982151 0.49517888 -0.48369873 0.15062582 0.07935873 -0.19296089 -0.20710328 0.19610143 0.02569162 -0.78555506 -0.3661962 -0.14488259
主意 -0.058185883 0.016283276 -1.2014701 0.2934589 0.46434093 0.11469235 -0.23681012 0.69543946 0.42673174 -0.7910502 -0.49394497 0.17396435
手指 -0.047315553 -0.34165326 -0.13995822 1.1525308 0.22507793 -0.6395398 -0.8091247 -0.2827375 0.4886844 -1.1978422 0.38376826 -0.021387506
难以 -0.0619438 0.03596433 -0.18669888 0.031118589 0.62011087 0.19335778 -0.05386546 0.28425363 0.058001075 -1.1154267 -0.2981751 -0.33685124
老人家 -0.013414022 0.32897085 -0.87883985 -0.056126762 0.69173485 0.019406788 -0.20956586 0.7690939 -0.113874815 -0.6180694 -1.1520772 0.18649212
大厅 0.21714939 -0.25442168 -0.48244295 0.04328044 0.10504641 0.3515672 -0.58663696 0.30797675 -0.6305729 -1.3195986 -0.389817 0.36526018
一张 0.7920814 0.15894312 -0.51244116 0.90905195 -0.049806215 -0.26316643 -0.69768506 -0.94062495 -0.37775272 -0.84460247 -0.3528552 -0.09368333
一件 0.12228281 -0.33442515 -0.4424401 0.5322857 0.25769487 -0.36374897 -0.3130497 0.67452145 0.09739908 -0.27530712 -1.2169114 -0.8196453
招数 -1.0226834 0.52373695 -0.24531558 -0.6852251 0.798293 -1.0635298 -0.17404044 -0.38553682 -0.13024604 -1.1012338 0.49600035 -1.462879
吕正平 0.4275182 -0.4624973 -0.6440534 0.08776704 1.5934964 -1.0326512 -0.700103 -0.6687583 -0.43932998 -0.7370541 0.76186174 -1.1728953
好人 0.3364249 0.7829917 -0.9003339 0.73001087 -0.19778503 0.09396585 -1.6253569 0.11169977 1.937828 -0.13531528 -0.59133184 -0.9195128
起身 0.036331985 -0.007134526 -0.2585973 0.33549574 -0.13101453 -0.24120896 -0.6277126 0.06956937 -0.17733312 -0.9103636 -0.6019286 0.063074
认错 -0.42423174 0.20833513 -0.13196237 0.9795626 0.7875227 0.726866 -0.64568883 0.17485107 -0.0041916235 -0.5546575 -1.438588 -0.46226025
银子 0.10046827 0.22415572 -0.9082812 1.0367179 -0.17328277 -0.7813443 -0.888028 -0.29168007 -0.037515767 -0.015924115 -0.66698337 -0.5536549
大悲老人 0.3160908 0.24199176 -0.1369313 -0.4263288 -0.756601 -0.31937572 -0.9853973 0.9388452 1.5585864 -1.4550502 0.09009379 -0.73758215
赏善罚恶 0.4912562 0.08055506 -1.3891169 -0.30483904 -0.24782817 0.15126126 0.3863924 -0.3342986 -0.49671757 -1.2531897 -1.0052464 -0.66929007
腊八粥 1.0437247 0.24012302 -0.6834702 -0.28401592 -0.3602353 0.6840891 0.027805664 -0.21837558 -0.9405722 -1.4400585 -1.0492051 -0.72994435
只不过 0.40938425 0.7989022 -0.32955903 0.23269494 0.7993391 0.24712983 -0.043643247 0.08463648 0.39746717 -0.5394059 -0.7949055 -0.70067227
口中 0.16765694 -0.028865885 -0.16759935 0.7863214 0.12534653 -0.8765807 -0.491971 -0.07857913 0.29521015 -0.8889659 0.30522373 -0.3070502
实在 -0.75114894 0.21827666 -1.0167716 0.47237077 0.5404857 0.13728496 0.06837604 -0.05383741 0.4600324 -0.7021509 -0.68274933 -0.5999546
手腕 -0.6437454 -0.92890555 -0.40061253 1.0482684 0.23004842 -0.13716663 -0.9978061 0.2241976 -0.13533628 -1.2468011 0.79075974 -0.4892874
擒拿 -0.56966776 0.24754922 -0.051120777 -0.04830687 1.2429255 -0.42584693 -1.0263886 -0.9912102 0.6797861 -1.2981089 0.6289454 -0.5961633
不愿 -0.25624883 0.30113268 -0.50074214 0.23795094 0.66985977 0.10827354 -0.30906755 0.009214821 -0.025065223 -0.4833121 -0.79619426 -0.5084427
石郎 0.122831084 0.98722965 0.20769823 0.37321216 1.6474918 0.19394629 -1.1604049 -0.7892172 0.7488376 -0.6813047 -0.5515979 -0.26716432
木岛主 0.9088605 1.7964714 0.15614733 -0.16454571 -0.44128907 -0.45205757 -0.65119 0.32804376 -0.43229455 -1.4172558 -0.86920774 0.681853
奇怪 0.28338987 0.102986254 0.017732248 0.5556275 0.5012088 -0.47783265 -0.67938167 0.39010403 0.05111676 -0.7129996 -0.36009723 0.22453225
已然 -0.3332642 0.103588335 -0.39022428 0.12061561 0.05056692 -0.6725199 -0.49722555 -0.37138465 -0.3559997 -0.8528422 -0.10331412 -0.4426907
腰间 0.1434354 -0.5308977 -0.1392133 0.6080666 0.46964675 -0.5242168 -1.3756763 -0.13963242 -0.5037555 -0.70240974 0.41903025 -0.3187771
一把 -0.18137518 -0.5595828 -0.091357656 0.12493132 0.21285638 -0.32829097 -1.2772214 0.29940033 -0.05727137 -0.7198328 -0.049029578 -0.34870368
满脸 -0.6507757 0.12066137 -0.047779754 1.0033906 0.37292954 -0.70057917 -0.5479803 0.47565794 0.16245508 -0.4735257 -0.6539942 -0.046276003
模样 -0.6015226 0.26857525 -0.0478167 0.8284955 0.14257538 0.12493548 -0.63100654 0.12639536 0.24269746 -0.56015015 -0.43582866 -0.59940064
尽数 -0.16815343 -0.2484318 -0.009580255 -0.52647585 0.3600712 -0.17639416 0.074709564 0.6276747 -0.1794214 -1.6608028 0.16398719 -0.41023076
天崖 0.26480725 -0.17490031 -0.63147455 0.31451654 -0.018332632 -0.20510021 0.48891982 1.6135111 0.6061798 -0.9944756 -0.37732196 -0.90019774
先前 -0.021375567 0.027565124 -0.14100325 -0.118277684 0.07032072 0.15032367 -1.0123645 0.26935744 -0.20965786 -0.76157403 -0.5281184 -0.10607967
司徒帮主 0.5168614 -0.387615 -1.529208 0.5855906 1.0071625 0.40932533 0.664094 0.009853258 0.36479747 -1.0546838 -0.24697527 -1.114825
老婆 -0.42256716 0.80793023 0.5013759 1.4922112 0.9527524 -0.13645889 -0.5581602 -0.16904305 0.59404975 -0.77616906 -1.2588067 -0.15186964
一日 0.31155816 0.41258252 0.31830508 0.19881132 0.55480695 -0.49524802 -0.47539866 0.79016733 0.14439541 -0.40246052 -0.8746099 -0.5665364
一块 0.026844207 -0.40411797 -0.6359344 0.55218065 -0.44619218 -0.7295707 -0.7325477 -0.23675145 -0.1486258 -0.79700375 -0.5145168 -0.18378037
害怕 -0.14135164 0.23499379 -0.19480003 0.609093 -0.25100157 -0.0045484994 -0.19777201 0.031888504 -0.028647412 -0.9146918 -1.131207 -0.28356797
小兄弟 0.34843564 0.13544273 0.17980528 -0.5685113 -0.5655125 -0.3953524 -1.0704626 0.7205781 -0.39161578 -0.5243352 -1.3048204 -0.6082447
早已 0.22183754 0.42866355 -0.036289368 0.06686064 0.20830698 -0.19466814 -0.1723198 0.18174912 -0.07899222 -1.1291381 -0.21792638 0.0065841973
威德 0.038760547 -0.16112293 -0.85466754 -0.93649083 0.9820789 0.49974903 -0.6953335 0.72846425 -0.34041893 -1.1091634 -0.4943443 0.029921226
少爷 0.5806291 0.9585917 0.21341152 2.397071 0.8070233 -0.36054772 0.0048087686 0.52219635 1.0588804 -0.9961653 -1.0114759 -0.1340026
群雄 1.046856 0.83748937 -0.502913 -0.26471603 -0.05632325 0.18126377 0.06942096 0.22192553 -0.96880484 -1.4108585 -0.9359242 0.15673739
两块 0.84518105 -0.51261985 -1.1659939 0.118775845 -0.5996645 0.4644037 -0.53591853 -1.0247817 -0.6956886 -1.5946087 -0.3703729 -0.6467474
成自学 -0.7599055 -0.41857752 -1.2439504 -0.60813415 0.21820216 -0.2803767 -0.63339365 0.17118236 -0.3015288 -1.518455 -0.3983807 0.67117894
门派 1.0641556 -0.05122657 -1.5617638 -0.5147274 0.92111236 -0.03740214 -0.30130097 -0.23422277 -0.4541376 -0.4525723 -0.5019156 -1.0150272
大喜 -0.03112352 -0.07784342 -0.016343417 0.87564915 0.48672223 -0.46226072 -0.2967114 -0.2561338 0.008291116 -1.0364125 -0.28523043 -0.022490991
幸好 -0.40061706 0.20643918 0.16346054 0.3405258 0.42290828 -0.8243058 -0.2299934 -0.22829735 0.001702125 -0.98530465 -0.15907566 -0.3479738
一齐 -0.1051195 -0.11405882 -0.89225346 0.043720525 0.19605935 -0.13060431 -0.21749693 0.33407462 -0.51963824 -0.9108297 -0.04647952 -0.08306054
双剑 -0.6493908 -0.36113527 0.18768315 0.26286316 0.039200883 0.4850018 -1.5773709 1.3189149 -0.117427416 -0.70228666 0.4188133 -1.0049803
那姓 -0.056691784 -0.44644013 -1.4002444 -0.7747132 0.49464938 0.010085723 -0.96364397 -0.3862004 0.5975631 -1.1416473 0.23677607 -0.14154404
身旁 -0.23368427 -0.13369736 -0.41845116 0.6480913 0.2010265 -0.41335413 -0.7641841 -0.09674768 -0.15384385 -0.6955798 0.072098725 -0.32095084
胖子 0.9832376 -0.25920448 0.8241301 -0.66044086 -0.2792091 -0.4025175 -1.0606564 -0.42246863 -0.37939554 -1.17458 -1.2322936 -1.4085813
展飞 0.8429369 0.040292528 -0.20854497 1.8362632 0.8283908 -0.3118325 0.109715514 0.8173368 1.4139292 -1.2069043 -0.16501097 -0.33610848
几个 -0.18715358 0.14141853 -0.13702984 0.4226558 0.3530255 -0.23879206 -0.712786 0.32761967 -0.15735047 -0.38518083 -0.38991338 -0.4545423
两名 0.2628126 0.2694854 -1.1515261 0.008730356 0.1210243 -0.3807049 -0.42169324 -0.70293283 -0.81481403 -0.7880463 0.13988176 -0.34913024
无不 0.36012173 0.22982937 -0.32497537 -0.3472648 0.5272878 0.12540326 -0.337008 -0.14754137 -0.57119274 -0.951553 -0.06915694 -0.5497688
练功 0.0599844 1.1158414 0.19818191 0.34786707 -0.07095794 -0.8144416 0.24844548 0.76033384 0.967993 -1.4114413 -0.4014414 -0.01145247
徒儿 -0.92722654 0.5392794 -0.8414492 -1.2643946 1.2099674 -0.6266731 -0.8024786 0.30317095 -0.33942425 -1.0459851 -1.1247559 0.46713665
粽子 -0.8742581 0.46449775 -0.21962565 -0.43624577 1.4102882 -1.5620679 -0.15659079 -0.54344475 0.44233137 -0.82836634 -1.3630965 -0.41932437
碧螺 -1.4436432 0.76045287 -0.34914532 -0.59223974 1.0129117 -1.1160753 -0.016543487 0.4427746 -0.19658954 -1.0864142 -1.8192854 0.104596846
上前 -0.5319897 -0.21658972 -0.6551504 -0.26597935 -0.07066414 -0.043296672 -0.8132845 -0.12283862 -0.38730624 -1.3159205 0.09024939 0.054266907
玄素庄 -0.5065634 -0.11258176 -0.8826452 0.41751665 -0.072492644 0.77943575 -0.6403388 0.89372647 -0.7870639 -0.53982437 -0.83023244 -0.70944804
回去 -0.09972665 0.596265 0.00047978922 0.34086925 0.9780078 0.009053412 -0.29685482 1.0761673 -0.94193906 -0.46944883 -0.8871988 0.04514574
老伯伯 -0.076426804 0.20111091 -0.22663695 0.8437611 -0.35063416 -0.4994623 -0.73118365 0.7662796 1.6699349 -0.785425 -0.9819111 -0.44014612
生气 -0.59888154 0.18210596 -0.1665252 0.49360353 0.97178495 -0.124102205 -0.8016784 -0.24379297 -0.22934632 -0.3688213 -0.8609946 -0.40886727
四个 0.17031676 0.047670767 -0.6215224 -0.16974238 0.91999024 -0.14400817 -1.2409503 -0.15450715 -0.7535985 -0.24554028 0.01579848 -0.56605655
未必 0.021328535 0.48920032 -0.65027505 -0.39799625 0.4250574 0.15793891 0.06201167 0.22871268 -0.050409146 -0.895985 -0.38723812 -0.60064214
兀自 0.01821201 0.01806779 -0.61016285 0.52373064 -0.0762929 -0.46714973 -0.603064 -0.08783497 -0.26997817 -0.743785 -0.40587372 0.15197581
竟是 0.1264588 -0.029004643 -0.9291342 -0.025418103 -0.24503168 -0.022089867 -0.5152837 0.049970664 -0.34956735 -0.82572705 -0.22724852 -0.21350986
一会 -0.1455621 0.44272542 -0.40019095 0.50020343 0.094284326 -0.2732348 -0.3357414 0.12184623 -0.0048756558 -0.9747751 -0.8427959 0.41738495
干什么 -0.37919995 -0.07372017 -0.3769306 1.0909535 0.35657287 -0.6057534 -0.5360926 0.23704346 0.330476 -0.7172838 -0.43816358 0.14380509
片刻 0.061909948 0.8132911 -0.5032739 0.86671484 -0.28812724 -0.13218294 -0.015257743 -0.21329649 0.21199381 -1.1538491 -0.24568176 0.18151054
安奉日 -1.048128 -0.30538154 -0.6195369 0.7622292 -0.2883423 -0.60169905 -1.2656581 1.4584553 -1.0000191 -0.30841458 0.35114256 -0.91633874
柯万钧 -0.411398 -0.9676565 -0.11115223 0.4831095 0.5860522 0.22610703 -1.4757068 1.2760012 -0.17712241 -0.72283864 0.09540951 -0.42404765
走进 0.15502942 0.20435421 -0.24984162 1.4018775 0.23943196 -0.27038258 -0.32128596 0.47978905 -0.89781475 -0.644808 -0.94299114 0.26708478
奇道 0.25128686 0.4274424 -0.3292641 0.99678713 0.7781162 -0.16228637 0.2278133 0.37517014 0.25573653 -0.6412332 -1.1854123 -0.30680484
内息 0.7453772 1.010301 1.2532908 0.28383636 -0.24223126 -0.570421 -0.16170873 1.1149868 0.5161962 -2.0541635 0.15603656 -0.30007184
石门 0.1390822 -0.5066868 -1.0754541 1.0522572 0.047094 -0.4847179 -1.2490504 0.7991612 -0.16652523 -1.8996612 -0.003343558 1.8434484
打败 -0.9423068 0.5552004 -0.24129649 -0.5382957 1.5947115 0.3550491 -0.8680712 -0.4306062 0.39712116 -0.9030473 -0.76838094 -0.45334414
金乌 -1.5441494 0.7935745 0.1566731 -0.19110669 0.40261585 -1.0829179 0.10724026 -0.18139243 -0.308688 -1.3522063 0.07029835 -1.2579489
天虚 -0.9366733 0.20363541 -0.50627774 0.5208552 -1.0498068 0.67175 -0.5054728 -0.66375697 -0.31382945 -1.4232931 -0.08775342 -1.0377553
眼睛 -0.07545744 0.5395521 -0.012853659 1.1720432 -0.18853806 -0.30079326 -0.6065988 -0.25704807 0.23304293 -1.007452 0.027604273 0.049142946
发出 0.2286252 -0.0991164 -0.1593997 0.46120936 0.47087926 -0.7925844 -0.6313163 -0.570066 -0.6627481 -0.86618376 0.2244011 -0.44283137
两步 -0.43945816 -0.54883146 -0.071421586 1.0831715 0.29427603 -0.28935862 -0.6828455 0.08951076 -0.16148727 -1.2243993 0.22157799 0.0065028947
一动 -0.23277655 0.26376063 -0.23802568 0.7503874 -0.3814846 -0.31822827 -0.69455874 -0.2538655 0.08397393 -0.64050835 -0.4704021 -0.49050307
微微一笑 -0.33086196 0.23367575 -0.31201604 0.62502295 0.53131294 -0.22907126 -0.14523143 0.10044998 0.041649424 -0.58784175 -0.4660183 -0.42896703
混蛋 -1.1826627 0.29092166 -1.2470361 -0.5991371 0.70632964 -0.45782351 -0.9274223 0.11323073 0.49548262 -1.0004653 -1.012077 0.7071323
记得 -0.39563 0.71977925 0.16687463 0.5525232 0.61939263 0.3364469 -0.2798021 0.86335695 -0.44332337 -0.5299106 -0.5136839 -0.587124
米香主 0.2854336 -0.3237922 -1.0839621 0.62687045 0.18395521 -0.16732371 0.7219375 0.83491784 1.1159858 -1.8068852 0.4310118 -0.78540874
贝大夫 0.5292831 -0.32922432 -1.0458397 0.52296215 1.0741807 0.20066695 0.4625684 0.96276665 0.5418333 -0.92928374 -0.4158237 -0.9093405
神情 0.23189943 0.4066455 -0.20374401 0.47050083 0.37551045 -0.007911264 -0.36831617 -0.20008107 0.19505757 -0.67862165 -0.6708778 -0.3995385
一名 0.5052689 -0.6785196 -0.69855803 0.080697134 0.2889932 -0.40779325 -0.9898984 0.25444618 -0.94545937 -0.8817975 -0.17834455 0.24366984
听说 0.06456242 0.14130978 -0.80523837 -0.08677187 0.50032073 0.21459661 -0.7433729 1.0249777 -0.005022123 -0.42981258 -0.9253016 0.10002463
心头 -0.37477213 -0.019033445 -0.13023038 0.5048982 0.41216707 -0.25694644 -0.7004229 0.28117815 -0.0773175 -0.45032874 -0.24131468 -0.5934132
其时 0.1704993 -0.17283814 0.12423929 0.24851494 -0.08147907 -0.37405854 -0.11093134 0.691341 -0.083197184 -1.0535682 -0.34018496 -0.45668295
面前 0.566157 -0.20409434 -0.37587115 0.2511094 -0.00043242873 -0.3244525 -0.9169118 0.20817246 -0.0658261 -0.50548893 -0.89500594 -0.16775613
身前 -0.18868195 -0.59849334 -0.42286947 0.48593286 -0.18441719 -0.39247292 -0.72216946 0.064454325 -0.2602126 -0.76810145 -0.07907151 -0.55560327
身后 0.11354076 -0.52819365 -0.17778386 0.55737376 0.4770347 -0.54161227 -0.77296937 0.14706485 -0.70019746 -0.6938968 0.18127175 -0.3903055
怀中 0.08108574 -0.23146023 -0.4796996 0.5076769 -0.5394211 -0.44200495 -1.1669369 -0.43650588 -0.22821471 -0.5865478 -0.25506365 -0.62045944
几句 -0.095367916 0.54924583 -0.118788786 0.42301995 0.8595316 0.16875204 -0.5604326 0.8886055 -0.24190323 -0.5058996 -0.4776448 0.0106213465
妻子 -1.0041007 0.5238214 -0.24973428 0.8201589 -0.16735917 0.55258733 -0.41366935 0.4174256 0.17798004 -0.6596233 -0.58585566 -0.9146613
齐声 -0.2746332 0.025433052 -0.7672659 0.017463386 0.4125055 -0.5872307 -0.22976555 -0.025122315 -0.48692283 -0.941352 -0.042365387 0.0019794444
中原 0.40237874 0.01297383 -1.2025657 -0.5615467 1.2291397 0.2595307 -0.7583442 0.16916983 -0.8717222 -0.46241412 -0.46066824 -0.41659868
哥哥 0.72867924 -0.45431283 0.19920331 -0.64183277 0.50959986 -0.35805258 -0.6042385 -0.57307774 -1.0583527 -1.1221659 -1.7425807 -0.8769498
半晌 0.20438927 -0.23321936 -0.6166207 0.4512418 0.4401009 -0.15374644 0.070739806 0.25415725 -0.1389779 -0.76807785 -0.8139076 -0.49891627
一场 0.10898477 0.108164795 -0.15464322 0.22648193 0.7079206 0.7247945 -0.120138586 0.23016994 -0.1212064 -0.83081466 -0.7964 -0.8255622
胡说八道 -0.38588917 0.02457934 -0.69480735 -0.25430906 1.1299801 -0.84092677 -0.687422 0.2036609 0.5626354 -0.41375875 -0.8010571 -0.20650962
道人 -0.045774844 0.093003795 -1.1380322 -0.026712874 -1.0144702 0.35023734 -0.4898996 -1.0381474 -0.15288277 -1.3154821 -0.10476694 -1.0445594
船头 -0.39309236 0.6117264 0.046467427 0.71094334 0.994427 -1.5992076 -0.38766682 -0.59718883 -0.51109207 -1.3469455 -0.28786045 0.7818068
本派 -0.5842609 0.46062133 -1.612799 -0.8318028 0.68520766 0.5001359 -0.30336383 0.23079294 0.060254168 -1.1613057 0.1588029 -0.14539981
风良 0.58800846 -0.5919164 -0.77962327 -0.18662661 1.5894333 -1.2631867 -0.99211085 -0.7692266 -0.682652 -0.6464595 0.5067007 -1.2394977
廖自砺 -0.92558104 -0.13913707 -1.3977797 -0.5597791 0.11226108 0.020075856 -0.9759976 0.17408416 -0.078914605 -1.4665942 0.22602129 0.6470202
梅芳姑 -0.5217083 0.9127134 -1.167456 0.28228703 -0.22800206 -1.2688334 -0.18255448 -0.03740805 -0.626868 0.34303588 -1.4347084 -1.3827232
少林 0.62939996 1.6422985 -1.6482992 -1.3146664 0.313985 -0.15039165 -0.16055015 1.1656448 1.0269186 -1.4395716 0.053960145 0.13657801
之外 0.1309775 0.3048293 -0.40556443 0.006610728 0.1345973 -0.6506099 0.027585275 1.1461835 -0.01911939 -0.613704 -0.3137222 -0.42896098
露出 0.10798816 -0.14651005 -0.19665089 1.071926 0.04091656 -0.22852983 -0.5876152 0.14797054 0.034748197 -0.6874742 -0.045695838 -0.50413316
个个 0.4780462 0.2667284 -1.335199 -0.29650518 0.104812056 0.32904595 -0.6075475 0.086589366 0.29390097 -0.8436265 -0.40100622 0.11699122
多谢 -0.07154424 0.33632436 -0.53833735 0.59258384 0.29382277 -0.0974744 -0.13745019 -0.065999925 0.1413165 -0.8218562 -0.78294885 0.017433222
怎能 -0.20842126 0.13089377 -0.65665436 0.27632576 0.5178648 0.11686241 -0.5464878 0.46312362 0.34019157 -0.51520216 -0.781133 -0.17433213
生怕 -0.5357109 0.056473576 0.09710375 0.43473324 -0.23641866 -0.12366651 -0.35469007 -0.10497541 0.052422136 -1.1275109 -0.522437 -0.52566963
小弟 -0.27031216 0.09677611 -1.638947 -0.41651297 -0.88388044 1.0754628 -1.0658827 -0.0484267 -0.18046765 -1.2258207 -0.8836438 0.015855977
阿黄 -0.3159467 0.0497184 -0.4793917 1.0675023 0.1494137 -1.1824217 -0.72282153 0.97489303 1.1443278 0.0566186 -1.7511892 -1.5363834
体内 0.8346997 0.43803328 0.5631011 0.28292698 -0.287207 -0.4825363 0.31995693 0.33179227 0.77858347 -1.8261678 0.0147122545 -0.9420183
之时 -0.22780246 0.3889939 -0.17126419 -0.11850549 0.497182 -0.3982343 -0.051373757 0.029023977 -0.34155735 -1.0364887 0.30890876 -0.59433454
钥匙 -0.25054806 -0.5470489 -0.94276 0.94485354 0.35594094 -0.36479646 -1.0985421 0.8012669 0.07945686 -2.0733354 0.23166332 1.7504467
剧毒 0.41126302 -0.15815765 -0.28284565 -0.45110098 -1.0238298 -0.06317252 -0.47520876 -1.1063406 0.074384995 -1.895061 -0.3213378 -1.2601757
柔道 -0.5998891 0.542505 -0.7388464 1.0364913 -0.43056118 0.72433215 -0.77707106 0.26008597 -0.27629104 -0.19291341 -1.1606823 -1.0640625
这是 -0.011236052 0.76040685 -0.6778341 0.1636889 -0.09458166 0.07976309 -0.87205493 -0.07648098 0.4329475 -0.53364736 0.095662825 -0.4109512
侯监集 0.05584246 0.035411835 -0.7190005 0.55697006 -0.13250035 -0.709865 -1.6682645 1.828434 -0.6155209 0.16932096 -0.06357661 -0.41237137
鲜血 -0.117699504 -0.8928462 -0.59502685 0.1845475 0.16942768 -0.9634264 -0.5826698 -0.39923403 -0.045804933 -1.3774264 0.28876224 -0.28415963
衣衫 0.4471594 0.110643774 -0.00982904 1.0905117 -0.16916168 -0.26895237 -0.2827138 -0.14556496 0.5201632 -1.2695433 -0.09700737 -0.16773246
男子 0.29393497 0.822115 -0.70275486 1.3320745 -0.041482784 -0.64653 -0.6803697 -0.20339628 -0.7739494 -0.34423643 -0.19365655 0.08250445
向来 -0.1899912 0.113431945 -0.99774677 0.17121245 0.086873025 0.33760166 -0.4601313 0.83417904 0.15051655 -0.5713148 -0.4993992 -0.32131264
好看 0.10340508 0.72278845 0.47558427 1.0548893 0.9773749 -0.42091635 -0.8393527 -0.43489948 -0.2103881 -0.34849304 -1.1350263 -0.37103748
一会儿 0.24426134 0.6202148 0.30842382 0.9328271 -0.012505345 0.12023156 -0.8153354 -0.001299161 0.6538103 -0.98336154 -0.49237505 0.021468326
泥人 0.5737893 1.1971967 0.5135842 -0.14319254 -0.8421788 0.050844483 -0.8194395 1.5398091 1.6399113 -2.0481827 -0.10974952 -0.29104567
喜欢 0.21755165 1.0087194 -0.29291692 0.75790566 0.70318776 -0.19293086 -1.3402292 -0.15465978 0.8934516 0.29355833 -0.6024631 -0.86318445
放在 0.8771917 -0.16576304 -0.29988548 1.1987492 -0.79256374 -0.5604531 -0.83721054 0.095259145 0.039604615 -0.8006898 -0.38400158 -0.29272354
向前 -0.6388911 -0.24920323 -0.16479178 0.5546549 -0.06649712 -0.47890303 -1.1645082 0.15543787 -0.49472833 -1.076134 0.7419936 -0.28252348
周牧 -0.5589119 -0.24156144 -1.1295955 1.2521837 -0.6480882 -0.31986272 -1.2422289 1.1165628 -1.2148231 -0.33184603 0.2731459 -0.7560702
随手 -0.19035664 -0.27755988 -0.58207905 0.37763965 -0.06406741 -0.34221423 -1.284193 0.184056 -0.011761885 -0.59269404 0.562706 -0.5425602
一点 -0.47471607 0.5049113 -0.19416854 0.6445511 0.5046976 -0.374663 -0.072755076 -0.12138321 -0.22765881 -0.698372 -0.495403 -0.20835356
甚为 -0.6685722 0.42281333 -0.124713294 0.3606253 0.33855358 -0.24188943 -0.24058123 0.512011 0.06760887 -0.8338915 -0.087432936 -0.3473124
厉声 -0.38143182 -0.5484722 -1.008165 0.15734918 0.3583377 -0.47208178 -0.7345306 0.44449326 0.14543647 -0.51394 -0.7747806 -0.017163223
房中 0.3661156 0.19096498 -0.96261233 1.5376046 0.49073035 0.041212123 -0.39013034 -0.24867184 0.053654652 -0.81008494 -0.49874088 0.41914865
相貌 -0.104165 0.31127524 -0.12171381 0.8224132 0.6839835 0.34113184 -0.34712172 0.08971531 0.018237898 -0.36722666 -0.97533065 -0.9230778
法子 -0.15640453 0.678183 0.044816695 0.058818016 1.0039445 -0.07075412 -0.8615207 -0.19496644 0.6201818 -0.8515898 -0.7772094 0.20697781
终究 -0.11674846 0.37178707 -0.5204353 0.12535426 0.3040083 0.24970125 -0.22905183 0.18689312 0.40021342 -0.77714694 -0.3739784 -0.37607014
功力 0.4928323 0.45325828 0.7439855 -0.3236592 0.6774186 -1.0994521 -0.09930735 0.36357856 0.11952414 -1.3650706 -0.4169937 -0.2563438
屋顶 0.38471058 -0.6257817 -0.7092216 0.8443611 0.62973464 -0.6201479 -0.93005747 0.12860604 -0.48889655 -0.70928854 0.7716002 -0.34548557
一根 -0.52386636 0.34232265 -0.011241485 0.6284747 0.39834395 -1.4621682 -0.5094429 0.27431297 -0.004556354 -0.61871153 -0.36719486 0.043752216
打开 0.2144798 -0.34060818 -0.90830797 0.7204598 -0.06764179 -0.28525224 -1.1813899 0.9902026 0.14457627 -1.5012985 -0.04499206 1.4308177
不便 -0.21873073 -0.27078977 -0.75421494 0.6100332 0.6818788 0.49616393 -0.38413432 0.7247529 -0.0815393 -0.5125501 -0.75051683 -0.42891106
客气 0.5504246 0.082827315 -0.810941 0.6742238 0.022806447 -0.39655894 -0.3176304 -0.24710968 -0.74790794 -0.64054865 -0.8383599 -0.01317069
吩咐 0.18860546 0.32682064 -0.7224719 0.5927066 0.078064345 0.31289992 -0.20039915 0.42545217 0.21294777 -0.7671258 -0.80259436 -0.02035073
佩服 -0.47698283 -0.50078547 -0.068004966 -0.022016015 0.058772005 -0.024112007 -0.7094111 0.7408527 -0.8412961 -1.0413767 0.14108123 -0.46330553
一见 0.21759652 0.077885956 -0.4364616 0.19454446 0.36548528 0.11443688 -0.511789 0.46170184 -0.4291982 -0.6592642 -0.2532076 -0.13865963
出口 -0.3937327 -0.48290452 -0.85321116 0.44611868 -0.07745714 -0.49148995 -0.9006745 0.2872506 0.48049885 -0.25292927 -0.8214864 -0.8276431
哪知 -0.10751636 -0.18154265 -0.087902084 -0.06482159 0.20128997 -0.180132 -0.46535605 -0.13845696 -0.13019009 -1.1188072 0.066543154 -0.7093302
剑尖 -1.1886942 -0.093098275 -0.6047055 0.34302452 0.0030607702 0.11899637 -0.7394771 0.08706538 0.016821364 -1.351991 1.062768 -0.87812734
料想 0.30117178 0.12672685 -0.42792448 0.47575983 0.22083624 0.11766612 -0.0510642 0.16055155 0.060693502 -0.87735355 -0.34292647 -0.40305564
没什么 -0.2393635 0.12888953 -0.3689558 -0.06115602 0.7699048 0.082431965 -0.29678297 0.05094595 0.10982092 -0.6185675 -1.4452839 -0.58641744
白老爷子 -0.14962049 -0.1388535 -0.8430854 -0.4755256 0.81277055 0.9707876 -1.5738364 1.3980373 0.040496353 -0.88577294 -0.9661147 0.512301
头上 0.42116046 -0.040205855 -0.18922903 0.35766882 -0.015516462 -0.11967127 -0.9031283 -0.3648212 0.16754432 -0.66412383 -0.72969925 -0.34349996
属下 0.321859 -0.0046569617 -0.996325 1.3818716 1.233605 -0.1297573 0.6008073 0.9256917 0.10402841 -0.89771324 -0.5941091 -0.034531623
照虚 -0.056326672 -0.1097938 -0.9990975 0.6438307 -1.3212215 0.64288145 -0.9382631 -1.316342 0.13049577 -1.5479082 -0.12238865 -1.2186245
壁上 0.57070327 1.781728 0.57638985 -0.064971566 -0.10303624 -0.14135437 -0.7805832 0.884837 -0.7700803 -1.5884124 0.4860029 0.59870666
手法 -0.33592907 0.44076675 -0.26224956 0.04915995 1.128288 -0.5375193 -0.92497027 -0.6869517 -0.112347 -0.88747406 1.1929306 -0.9601036
纷纷 0.5206425 -0.08956387 -0.36673942 0.026649153 0.059923183 -0.32325613 -0.38213143 0.002080097 -0.26124376 -1.1612052 -0.16861323 0.1204517
头发 0.16726457 0.6012655 -0.1641057 1.2008748 0.20451152 -0.68159866 -0.49278688 -0.6100296 0.19035679 -0.6748548 -0.5737688 -0.3056796
渐渐 0.06141303 0.34888366 0.20070022 0.037184287 -0.13286266 -0.5071109 -0.25583765 -0.36799815 -0.13243128 -1.458194 -0.0114250025 -0.36263266
几句话 -0.10250759 -0.1140977 -0.6520408 0.7122668 0.8736311 0.15416126 -0.53568214 0.76699746 0.031267315 -0.24796076 -0.7048524 -0.43527108
接过 0.3250294 -0.5974073 -0.52432084 0.05992487 0.03639296 -0.08486156 -0.92793053 0.45660853 -0.22945377 -0.6882738 -0.25104898 -0.5207183
师叔 -0.96010506 0.40107998 -1.3668152 0.092274494 0.21630839 -0.022510305 0.33275023 0.3823606 -0.052939832 -0.5351448 -1.1653613 -0.8753931
小人 0.19549066 0.121639244 -0.52917767 -0.20715772 0.31275663 -0.051050704 -0.6849527 1.5535252 -0.58904654 -1.2574842 -0.3569178 1.0329467
群弟子 -0.44437343 -0.005679872 -0.77996844 0.1290053 0.60452366 0.18455818 -0.37926665 0.6911147 -0.8959194 -0.72331053 0.0033754767 -0.17720227
从前 -0.67668855 0.79030836 -0.022740306 1.3443133 0.2154158 0.46051383 -0.43837494 0.32539564 0.9282401 -0.5959163 -1.2364917 -0.865851
可惜 0.6404508 0.30908072 0.8393529 -0.37234733 0.2908031 0.29308856 -0.7820654 0.44554704 -0.13875434 -1.147804 -1.1344866 -0.36443135
桌上 1.1460955 -0.10950269 -0.32362393 0.83465827 -0.12229724 -0.7545573 -1.1324203 -0.63445795 -0.81941736 -0.6396025 -0.6738674 -0.08844296
走出 0.20846637 -0.22704224 -0.5491449 1.0924094 0.16788322 -0.37583655 -0.436726 -0.2700564 -0.5755049 -0.707038 -0.78750676 0.00096656405
说不出 0.35368228 0.5045209 0.308489 1.2643334 0.383189 -0.3255543 0.033230275 0.06966074 0.23144609 -0.9352342 -0.4240243 -0.3312056
之内 0.07398871 0.37901455 -0.7994288 -0.65577626 1.5579909 0.50391227 -0.76867473 -0.6846078 0.65216434 -0.96885717 -0.80768865 -0.26827592
小船 -0.05414675 0.36540094 0.28965098 0.8239766 0.92921466 -1.0898722 -0.40961033 -0.41863635 -0.6505725 -1.2773249 -0.18042776 0.6038758
闻万夫 -1.1479982 1.525596 -1.0637308 0.24054334 0.79014677 0.549618 -0.9239161 -0.66776997 0.03114827 -1.0717702 1.0346851 -0.1211409
图解 1.0418421 2.3248818 -0.56575096 -1.0572234 -0.027138881 -0.6348625 0.08610028 0.6005238 -0.8089718 -1.3588597 -0.50162816 0.0054496997
读者 1.556535 2.4370098 -0.95724374 0.5359356 0.9459234 -0.24509107 -1.7067844 1.1968691 -0.5974121 0.08959581 1.3220205 -1.5318236
深厚 -0.0894561 0.44737324 0.049064927 0.15518999 -0.40996534 0.5186366 -0.5446056 -0.058353316 0.3575558 -1.3061358 -0.05988054 -0.61216223
不多时 0.46960327 0.20001435 -0.34968734 1.1067624 -0.10966544 -0.70020515 -0.03538507 -0.3084717 -0.20204216 -1.0837392 -0.3599581 0.079065815
避开 -0.12548888 -0.44930542 -0.89330995 0.3827887 0.84624714 -0.8398045 -0.43473905 -0.7023639 0.36664212 -0.9778374 0.63708836 -0.8062757
冷冷地 -0.13402835 -0.08228216 -0.44983333 -0.178003 0.6489947 -0.63296133 -0.66637087 -0.020586025 0.3751328 -0.6252523 -0.74009746 -0.042255156
之色 -0.13680695 0.13730374 -0.21731123 0.3153053 0.10003786 0.11440233 -0.39380026 0.009188392 -0.09567255 -0.8191756 -0.54992414 -0.35580814
一双 -0.13356182 0.10618335 -0.04916532 0.46612594 0.18274261 -0.27657902 -0.56786203 0.306016 -0.023809 -0.9091082 -0.32613397 0.14078479
着实 0.027855443 -0.12198413 -0.5244753 -0.03251794 0.53841543 -0.07874173 -0.2682971 -0.10508741 0.12072826 -0.84322006 -0.20560117 -0.63946533
取出 0.34253505 -0.5548 -0.6693378 0.8367008 -0.50723606 -0.08425019 -1.2587742 -0.039038714 0.021380773 -0.8310234 -0.60279626 0.14981262
四人 0.3374239 -0.3426131 -0.99871457 -0.3584398 0.6161422 -0.7139155 -1.0935304 -0.66939443 -1.0976083 -0.8452236 0.5689184 -0.46192467
纵身 -0.4216126 -0.4722424 -0.27033156 1.0848125 0.61562 -0.5042416 -0.37626916 -0.015404322 -0.5186704 -0.91257703 0.40610236 -0.3546011
一口气 -0.20855889 -0.3306831 0.24363491 -0.042377852 -0.086698756 -0.6625646 -0.56609714 0.04342364 0.089993976 -1.356109 -0.26447198 -0.19078209
贤弟 -0.18503112 0.24292032 -1.473768 -0.0066498388 -1.2054527 0.7625778 -0.28885934 0.4316224 -0.25769073 -0.99898493 -0.87001264 -0.75205076
开口 -0.26621544 0.12428187 -0.17925777 0.8383605 0.19215928 -0.07626197 -0.7743233 0.45881253 0.37704557 -0.38724497 -0.8561292 -0.36426514
害死 -0.093181156 -0.059218217 -0.7345893 -0.013045617 0.0015318168 0.9539792 -1.1843935 -0.118022226 -0.10879685 -0.70517373 -1.0342389 -0.46131545
娃娃 0.6336208 -0.15774126 0.22870657 -0.21684845 -0.030606344 -0.48452064 -1.4715998 0.34638193 1.0144122 -0.37066093 -1.3968972 -0.965359
对手 -1.095881 0.30960923 -0.41211474 -0.6362448 1.2015442 -0.023543134 -0.4600333 -0.08821095 0.19083294 -1.0739441 0.256185 -0.8795303
沉吟 0.20334312 -0.09585726 -0.60298824 0.5827952 0.12239444 0.74293476 -0.23900546 0.12217717 0.4010327 -0.6263115 -1.17758 -1.3193843
十天 -0.074281886 1.0377009 -0.3797617 -0.9456727 1.7206012 -0.1995888 -0.98200417 -0.48547417 0.9486999 -0.7724843 -1.4421495 -0.15417436
之情 -0.5959002 0.4405311 0.16706966 -0.045573793 0.1806738 0.6289616 -0.104847126 0.41858977 -0.32083935 -1.1380489 -0.92340976 -0.6290619
铁链 -0.2764219 -0.326836 -0.5567359 0.47466254 0.30535838 -0.8580504 -0.7466286 0.6739768 0.07989477 -2.0443356 0.020346854 1.5695665
指点 -1.145364 1.198484 0.14078572 -0.34277293 0.31070966 0.099233836 -0.06527291 0.50541234 -0.14373977 -1.1549988 -0.34789667 -0.61492753
花姑娘 0.045180924 0.20920329 -1.2244414 1.1156446 1.4833788 0.33803886 -0.24793679 0.6271788 0.28273812 -0.19135794 -0.36734933 -0.31374875
孙女婿 0.3931862 0.23960228 -0.23544982 -0.25430015 1.5674145 -0.12189306 -0.6650926 0.22213775 0.07396401 -0.6209746 -0.94597816 0.13043599
拆解 -1.2936864 1.0844612 0.40085638 -0.14818172 0.9141673 -0.2974754 -0.40856597 -0.4811247 0.1538696 -1.483885 0.84368044 -1.2808353
使者 0.53309995 0.31979597 -1.7014836 -0.50733995 -0.49114627 0.3729519 0.48262703 -0.610991 -0.7865468 -1.5215969 -1.0531257 -0.9503118
充满 -0.2560347 0.53892314 -0.29744345 0.7213709 -0.33544493 0.20200342 -0.13883789 -0.10463201 -0.45725885 -0.7371394 -0.8390207 -0.5909358
坏人 0.47990945 0.56246066 -0.56489813 0.6991966 0.21056923 -0.36934432 -1.8783959 -0.14116608 1.7550501 -0.12056934 -0.48203096 -0.9910051
前来 0.8731586 0.17544352 -0.64461166 0.17119846 0.30662748 0.2979453 -0.11614382 1.0000149 -0.33262044 -0.92770565 -0.13506615 -0.11702254
一个个 0.7506984 -0.039232776 -0.21660705 0.44378918 0.008776773 -0.76625013 -0.50070274 0.8195578 -0.17559095 -1.2149528 -0.12600452 0.631858
认得 -0.4548594 0.19726308 -0.13713214 0.85534096 0.29656315 0.24118336 -0.9085896 0.40220973 -0.05004793 -0.26482445 -0.76349473 -0.5274709
金刀寨 -0.21687752 -0.15708493 -1.6177927 1.0851238 -0.7624077 -0.91135585 -1.4275637 1.2086579 -0.69342893 0.14087534 -0.13931733 -0.67934406
老子 -0.28639117 -0.5126243 -0.33292368 0.21918589 1.1168711 0.059285536 -0.98027045 0.76738906 0.52567494 -0.5402695 -0.74506307 -0.19469696
急忙 -0.074458405 -0.6168121 0.43553558 0.91475946 0.05765437 -0.4636819 -0.9109546 0.13728315 -0.19046877 -1.4230419 0.46683812 -0.16966717
大怒 0.24094386 -0.5762324 -0.6549886 -0.01900513 0.40343326 -0.47571462 -1.1529441 0.090936854 0.51528347 -0.44278467 -0.6192884 -0.33499885
更是 -0.31777093 0.4749882 -0.86296314 -0.025370382 0.21237108 0.2626484 -0.3222539 0.37169403 -0.1500148 -0.48225138 -0.57354176 -0.42841586
三字 0.45056075 -0.40723717 -1.0569823 0.110087976 0.28508142 -0.24996305 -0.26215446 0.090873025 0.01242226 -0.59253985 -1.1902971 -0.6210463
这一下 -0.2599944 -0.65006787 -0.32414755 0.56758875 0.25256127 -0.63614917 -1.0018787 -0.57994 -0.18695213 -1.1195298 0.5554188 -0.50341815
比武 -1.2612882 0.49199918 -0.46092367 -0.2948651 0.7587792 -0.3450989 -0.35782024 0.020647503 -0.33993247 -0.9690742 -0.31621137 -0.14090239
一红 -0.08657441 0.48538482 0.15701817 1.291476 0.41550133 -0.4010898 -0.5246093 0.74748003 -0.4455569 -0.18643662 -1.175594 -0.3680522
门下 -0.74249476 -0.14926022 -0.8319565 -0.663813 0.50424486 0.59872544 -0.43602347 0.82746947 -0.24512056 -0.89394385 -0.4851693 -0.7620177
确是 -0.52329046 0.102744564 -0.62609076 -0.3224442 0.5778546 0.5379997 -0.8134826 0.24946867 0.057891943 -0.6756376 -0.9319946 -0.21334492
一生 -0.29442665 0.5914598 -0.088558644 -0.045903735 0.060350023 0.29339954 -1.0915586 0.4999023 0.6486398 -0.33577305 -0.9628004 -0.80165255
暗器 0.45026982 -0.9242287 -0.40860382 -0.54953426 0.76504683 -0.0862507 -1.6228722 0.5916753 -0.043365587 -1.3059005 0.7033231 0.14136118
大有 0.18271613 0.25186977 -0.7400768 -0.012630975 -0.11004732 0.5306414 -0.27701852 -0.093282424 0.19930293 -0.80860525 -0.6539703 -0.82840425
大为 -0.11654383 0.4625587 -0.50095046 0.17889108 0.3324035 0.14505106 0.02950611 -0.19182993 -0.06696114 -0.95088524 -1.0548319 -0.08210396
聪明 -0.45001116 1.3271928 0.12374736 0.20979783 1.0006362 0.44625178 -0.32651526 0.20195365 1.0077761 -0.813905 -0.8496393 -0.51240873
事情 0.09590322 0.480067 -0.27946967 0.794025 0.5686086 0.4490011 0.015495016 0.31729758 0.9807953 -0.9215368 -1.1491542 -0.5100196
长门 -0.70438474 -0.059792567 -2.1520643 -1.0091261 0.46040285 0.18312088 -0.94146854 0.38679954 -0.058938883 -1.1767619 -0.15872529 0.54087806
无数 0.48183015 0.258534 0.6347018 0.107755825 -0.06937207 -0.6585872 -0.17313676 0.48737505 -0.4238498 -1.008752 -0.34260383 -0.6143701
隐隐 0.14930749 0.15794314 0.2483939 0.7372844 -0.2385286 -0.37525928 -0.5535134 0.1470688 -0.20460175 -0.9643834 0.044615183 -0.41371733
决计 -0.25749773 0.39348936 -0.49634564 0.25973618 0.16007036 -0.20283225 -0.32964626 0.32545486 0.79744554 -0.8351884 -0.47252068 -0.043800738
几下 0.09747864 -0.31670412 -0.4741944 1.0214899 0.17738111 -0.9145752 -0.75395614 0.2916476 0.37643054 -0.4845166 -0.13829531 -0.36172536
一柄 -0.50740147 -0.2533027 -0.3693791 0.15077008 0.32420385 -0.44359437 -0.9263993 -0.26185668 -0.37403035 -0.76242286 0.3870891 -0.67412114
双掌 0.1427831 -0.74842584 -0.046931624 0.22225161 0.11371413 -0.8943952 -0.051515143 0.4891788 0.46009433 -1.6947547 0.50496435 -0.6274627
地方 0.6515969 0.15054151 -0.67870384 0.8576842 0.4135503 -0.40688792 0.38114497 0.017249245 -0.7707632 -0.69413 -0.74532425 -0.3375656
得紧 -0.25746173 0.1659921 -0.117206864 0.5381739 0.4339322 0.5857874 -0.95794356 0.76710725 -0.2662297 -0.6508684 -0.41985866 0.017601088
身边 -0.023128262 0.15057006 -0.29651558 0.8935238 -0.19194236 0.36932608 -0.8875423 -0.016092213 -0.33867875 -0.8896461 -0.48140702 0.25706556
想不到 0.20986372 -0.09745794 -0.9559192 -0.23764051 -0.097644456 0.12226688 -0.33018708 0.09241579 0.015803564 -0.73951244 -0.50482416 -0.8419276
两只 -0.2028384 -0.6248703 -0.06050248 0.6261013 0.0206998 -0.9703724 -0.40567696 -0.16469195 0.3423768 -1.0424609 -0.7809606 -0.2761816
向石清 -0.76363677 -0.44654974 -0.58497834 0.6957141 -0.15493858 0.46744487 -1.1164912 0.50936353 -0.60135525 -0.49873006 -0.2776384 -0.88567007
道理 -0.5545074 0.8676907 0.10698324 -0.6395225 0.7527555 -0.30805418 0.15882903 0.03756575 -0.36641335 -0.8628884 -0.23566684 -1.3404931
小心 -0.31524527 -0.28889185 -0.7018129 0.37061158 0.3673889 -0.17155482 -0.47054693 -0.66121745 -0.26261708 -0.80239004 -0.3132953 -0.6042746
答应 0.031606726 0.1786257 -1.3254099 0.44460782 0.17663814 0.31189352 0.06633301 -0.6622 -0.1942144 -0.981177 -0.7907267 -0.26752582
不识 -0.41456667 1.3844976 0.58913815 0.08237078 0.26281136 0.1798222 -0.9353787 0.6092863 -1.084379 -0.6351379 -0.82688874 0.032815058
内劲 -0.85941195 -0.28241652 0.5631413 0.27312216 0.7088742 -0.68345016 -0.57208246 0.47728702 0.35591286 -1.3044068 0.71891695 -1.1243547
疼痛 0.052155714 -0.50443226 0.3354871 0.6573277 0.4655679 -0.8007833 -0.8472687 -0.26220772 0.35024452 -1.4878495 0.45948073 -0.23196898
老儿 0.56320125 -0.41481864 -0.35344502 -0.8239345 1.1989231 -0.6729673 -1.3658558 0.35844964 -0.18428628 -0.37761807 -0.6047775 -0.3609993
修习 0.8454971 1.3460248 -0.029124124 -0.40658155 -0.26372138 -0.57116497 0.5501543 1.5728992 0.7669515 -1.7558724 0.034907643 -0.3553512
阴阳 0.79748255 0.7224574 0.48910087 -0.11424566 0.29460847 -0.12052063 0.45564163 1.06186 1.3372933 -1.8645468 -0.033555113 -1.226199
推开 0.3099279 -0.12570514 -0.51690817 1.089487 0.5272077 -0.30490687 -0.37916073 -0.17868337 -0.04696581 -1.4023596 0.014808684 0.71528983
一碗 1.1611178 0.07746864 -0.47143355 0.7494006 -0.061634693 0.2973228 -0.48833472 -0.51837534 -0.597716 -1.151995 -0.8785348 0.067260265
武学 0.120142944 1.5516769 0.2930009 -0.85377884 0.2012702 -0.24572955 -0.12919682 0.34380963 -0.19232811 -1.4554712 0.26340804 -0.5234941
船舱 0.26099998 0.32948747 -0.37805462 0.7025422 0.48535466 -1.0496492 -0.506795 -1.2416707 -0.37934354 -1.0562284 -0.5678104 0.38879007
船上 -0.10514943 0.48772854 -0.4164812 0.27516013 0.4991066 -1.3743876 0.41844413 -1.0121956 -0.60438067 -1.3269609 -0.43491888 -0.045550548
磕头 -1.3621147 0.50389314 -0.5525232 -0.1260996 0.0137208365 0.008896351 -0.64146155 0.3292994 0.11944315 -0.9084255 -1.0383551 -0.026758004
答允 -0.16246445 0.1848176 -0.67919815 0.108731434 0.49465594 0.87506396 -0.18045563 -0.37845173 0.20617272 -0.9298853 -1.3820354 -0.74206185
教过 -1.3618693 0.9359047 -0.095393434 -0.52374554 0.68952906 -1.3787147 -0.18651573 -0.18011935 0.66054845 -1.120135 -0.0041406043 -1.0557897
阿绣道 -0.99836046 0.9302039 -0.032991182 0.25098878 0.902887 -0.956728 -0.29824534 -0.48677513 0.18046626 -1.0240477 -1.1053376 0.27566215
柴刀 -1.6291862 0.8214408 -0.3909813 0.019946842 -0.07147887 -1.4768467 0.0692185 -0.36842802 -0.42018753 -1.2351155 0.099333994 -0.7461567
齐自勉 -0.7483374 -0.5163012 -1.3475803 -0.4432026 0.04175954 -0.22231731 -0.5187757 0.10794675 -0.28339168 -1.5931585 -0.093603745 0.4965155
好不好 0.3920644 0.90633225 -0.35069087 1.030441 0.36055762 -0.35558838 -0.55457205 -0.23915552 0.6706148 -0.31364334 -0.8443405 -0.16653141
正要 0.20057812 -0.15433742 -0.5490482 0.2977233 0.12409339 -0.6040502 -0.618812 -0.11222943 0.07003292 -0.6406459 -0.77433485 -0.039052032
惊呼 -0.15072715 -0.02239616 -0.38790408 0.78230953 0.21870707 -0.6455823 -0.75751793 -0.58696574 -0.030243712 -1.1497935 0.55650383 -0.07845336
背心 -0.2038081 -0.2501453 0.19287337 0.3257478 0.1703191 -0.3982636 -1.4328529 -0.19638152 0.3391016 -1.3340101 0.7211071 -0.078718826
碰到 -0.29822692 0.06859218 -0.37577575 1.4174973 0.2031419 -1.054821 -0.4073758 0.13341783 0.46751487 -0.7983722 0.31340536 -0.22433567
躬身 0.21842763 -0.0815803 -1.1767853 0.35791215 0.6454229 -0.23443985 -0.20182592 0.5492614 -0.6225366 -0.75879765 -0.5251805 0.49802902
使出 -1.2570227 -0.05300404 -0.03506086 0.29502687 0.671658 -1.046444 -0.7557545 -0.08421352 -0.08531169 -0.9763086 0.72892296 -0.80306435
情景 -0.2235039 0.24024782 -0.2416772 0.6514648 0.117659286 -1.4617847 -0.0117943315 -0.06879335 -0.24532226 -0.7479871 -0.7570567 -0.18719006
早就 -0.20796731 -0.3173658 -0.21607903 -0.01673181 0.91898346 0.297535 -0.56513053 0.2936355 -0.37163413 -0.70198506 -0.7424144 -0.38608077
剑术 -1.0983597 -0.02559799 -0.64543355 -0.18580239 0.10115741 0.3201897 -1.0354903 0.11735163 -0.27291864 -0.6846334 0.24961598 -1.1974369
生平 -0.44413924 0.04191817 0.13293536 0.3358389 0.50948584 -0.31582204 -1.24396 0.3638962 0.38520554 -0.3048619 0.087480575 -0.88132626
手足 -0.13314696 0.15249635 -0.171285 0.34904152 0.46792087 -0.34242922 -0.8640132 0.5319944 0.6111245 -1.3767514 0.32355875 0.7676595
凌厉 -0.88584304 -0.1629806 -0.27906248 -0.16996647 0.51170796 -0.4744064 -0.44457108 -0.5242346 -0.15436505 -1.4697549 0.7970203 -0.9703534
糊涂 -0.30117798 0.6720838 -0.18933308 0.72556204 0.62733525 0.028065894 -0.6630691 0.15403342 0.60880303 -0.6489356 -1.3959595 0.14607252
一路 -0.17589065 0.62786275 0.48832223 0.007502285 0.28233543 0.3361338 -0.39518106 0.9068916 -0.75486404 -0.6359093 -0.91795105 -0.6887516
本门 -0.5768567 0.16997184 -0.82746327 -0.6147061 -0.037482504 0.6778893 -0.47928855 -0.1199645 0.2546679 -1.3006324 -0.09704737 -0.6354284
日后 -0.10084945 0.20388062 -0.12328487 -0.14242396 0.47803074 0.06328902 -0.21265523 0.8416714 0.042549107 -0.7155617 -1.042259 -0.35608596
软鞭 0.6660928 -0.9748066 -0.47386703 -0.46227023 1.5799589 -1.1474781 -1.5069395 -0.118060626 -0.23620225 -0.7560063 0.78387886 -1.2970217
已有 0.071510136 0.50623894 -0.34735754 0.24831991 0.23707601 0.05758907 0.3204866 0.44993773 -0.22372451 -0.9405104 0.07378599 -0.93711746
好好 -0.44674167 0.72637343 -0.12234057 0.28722247 0.25831968 0.43642446 -0.6066913 0.09146771 0.5662566 -0.8319655 -0.97897184 -0.095350526
回答 0.32903245 0.54952836 -0.95353377 0.6130398 1.0970682 -0.49820593 -0.07150452 -0.49137694 0.16982466 -0.4646074 -0.846337 -0.08912727
群豪 1.0160767 -0.2717033 -0.79638845 0.73581016 1.5298145 -0.032119952 -0.72505206 -0.24585044 -0.8650639 -0.47015208 0.23679653 -0.45272377
九节鞭 0.38664114 -0.3392421 -0.05418374 -0.31411162 2.0612411 -1.3809583 -1.4498246 -0.52837574 -0.957082 -0.26919702 0.013712742 -1.0790316
二使 0.56112653 -0.06669107 -1.550175 0.020215664 -0.24948321 0.83077455 0.4255405 -0.81108767 -0.39664724 -1.6190552 -1.2015313 -0.8024405
父亲 -0.60069776 0.52647394 -1.0599397 0.30927926 0.4527349 -0.08720155 -0.32431582 0.16752294 -0.4330241 -0.4714357 -0.39974743 -0.047366202
有个 0.028423438 0.22519882 -0.255308 0.525017 0.49879727 -0.6462828 -0.86612946 0.12346296 -0.5909386 0.19736846 -0.9522795 -0.7541466
声息 0.50200176 -0.45367673 -1.3151408 1.0025083 -0.13383648 -0.52396005 -0.45981824 0.09922774 -0.41128466 -1.0408108 0.21217772 0.2745199
伸出 -0.042913776 -0.6668927 -0.44586283 0.81651056 0.008242176 -0.28608778 -0.9770905 -0.7202429 0.16320452 -1.3941121 0.37978983 -0.09128358
无礼 -0.25956115 -0.31725526 -0.34279752 0.79178715 0.8910178 -0.22968088 -0.58795017 0.7033384 0.02752 -0.55836606 -0.5702489 -0.036747508
小腹 -0.51775134 -0.49252993 0.05425812 0.30601725 -0.34440887 -0.48441562 -0.96344525 0.06470737 0.48229173 -1.5975801 0.8502887 -0.81366944
得意 -0.4958315 0.13047744 -0.6236885 0.25424635 1.0005759 0.30498812 -0.6667871 -0.031693105 -0.024617543 -0.43934533 -0.03925646 -0.7256371
理会 0.2328267 0.4007231 -0.44046265 0.26913396 0.26780328 0.018383829 -0.9985354 -0.19165121 -0.4094887 -0.6201693 0.05392333 0.052930087
四名 0.40331537 -0.75050586 -0.8872533 0.5227014 0.09435325 -0.34797552 -0.66815853 1.0193278 -0.7911398 -1.0483207 0.1851584 0.33475465
大吃一惊 -0.5661132 -0.43844762 -0.7711877 0.8035484 -0.067652225 -0.38775495 -0.27359384 0.09320139 0.2811057 -1.0048283 0.26965714 -0.46825743
良久 0.16770877 0.04176752 -0.3523368 0.56704265 -0.37071863 -0.23478575 -0.4573731 0.11341814 -0.31235638 -0.9187291 -0.5491553 -0.07005426
时辰 0.223543 0.8310899 0.10506025 -0.14279804 -0.42424217 0.052951917 -0.22658502 0.16982017 -0.21134318 -1.4626666 -0.2036294 0.034541287
脚步 0.24263635 -0.38820428 -0.06543766 1.2192333 -0.030064056 -0.6800774 -0.122215435 0.30959392 -0.711329 -1.3674761 -0.15957706 0.15275137
干干净净 0.2899829 -0.04101283 -0.54980135 -0.14141874 0.75754076 0.87156445 -0.38248837 0.0032093502 -0.6922214 -0.84378695 -0.90184355 -0.6476983
我要 -0.43012312 0.15289019 -0.07155817 0.4929919 0.7885556 -0.21157146 -0.7915489 -0.21158834 -0.12175422 -0.58612174 -1.0455326 0.048627775
回头 -0.41094202 0.016545508 -0.21778527 0.5756666 0.045632616 0.25336465 -0.9502986 -0.036566675 -0.20468004 -0.6124958 -0.42776045 -0.5450169
回到 0.22913742 -0.087110706 -0.23907787 0.78615034 0.07385479 0.27234182 -0.8021867 0.3685132 -0.44024858 -0.7362376 -0.4209204 0.043579634
半分 -0.47125083 -0.045220267 -0.3547283 0.07711355 0.5555474 -0.086317584 -0.461274 0.32607096 0.16418052 -0.9329058 -0.050434735 -0.3138337
凶险 -0.2555065 0.10484306 -0.32787693 0.14468671 0.15399975 0.015195025 0.2071428 0.36877918 0.36948392 -1.1975547 -0.18294698 -0.8262724
师兄弟 -0.73850197 0.022066526 -1.2408379 -0.14149672 -0.12324027 0.51162803 -0.7454388 -0.17118382 -0.43712252 -0.7368917 -0.23102507 -0.6788268
挺剑 -1.0778952 -0.5608368 -0.85903966 -0.22646977 0.27406278 -0.068229616 -1.0679508 -0.3461607 -0.13232765 -1.1540631 0.48189938 -0.75866205
衣袖 -0.17513047 -0.5939389 -0.29451022 0.22220209 0.36779138 -0.018523438 -0.84223425 0.2898186 0.5017494 -1.0720302 0.12029352 -0.24068612
种种 0.08316478 0.63492876 -0.41030294 0.6385429 0.42012793 0.42384025 0.3385457 0.80232483 0.34559426 -0.8388742 -0.3288855 -0.7193227
老贼 -0.27660003 -0.10233159 -0.9429362 0.13725278 0.787256 -0.6101964 -1.4846995 0.28828678 -0.3104756 0.09765846 -1.8963863 -0.020557374
古怪 0.39188692 -0.13072479 0.2190926 0.43250284 0.47720462 -0.5509224 -0.28221038 0.38792208 0.7316261 -0.6690525 -0.7932457 -0.8881769
几天 -0.4892887 0.3473066 -0.10379491 0.5147218 0.731524 -0.2043523 -0.6663072 0.29693893 0.51982087 -0.43820438 -0.9572493 -0.3179725
不易 -0.06224513 0.19769241 -0.6305332 0.26497918 0.17495719 0.40409195 0.0024890709 0.17317244 0.17467934 -0.73961705 -0.51146793 -0.9399322
身份 0.048997846 -0.054860696 -0.37231502 0.3755395 0.775256 0.5314571 -0.2151716 0.7893554 -0.18973073 -0.6438176 -0.48539537 -0.69153965
闻到 0.6454159 0.14189373 0.31603035 1.1045535 -0.46963698 -0.3736807 -0.49927086 -0.63887715 0.028338946 -1.2018704 -0.76732963 -0.37901613
神功 0.7511504 1.2500635 0.44579652 -0.1850038 0.029642355 -0.2784018 0.2581956 1.1281446 1.067372 -1.81347 -0.2293784 -0.310455
大夫 -0.22429378 0.7672312 -1.6344104 -0.19799525 0.47666192 0.83822674 -0.44769764 0.3056868 1.045573 -0.8219077 -0.41050404 -0.21337035
走火 -0.85239655 0.94579786 -0.15961514 -0.30659774 0.47288343 -1.6282802 0.15568052 0.03087175 1.0913788 -1.5146744 -0.6596227 0.0918624
门外 0.47931066 -0.024361867 -0.68762124 1.5108231 0.893874 -0.2566642 -0.46971244 -0.34752572 -0.2380006 -0.6386365 -0.43697768 0.1577224
耳朵 -0.09632737 0.61717623 -0.2989728 1.81433 0.9998406 -0.72524035 -0.20165862 -0.57308185 -0.10527395 -0.683042 -0.7563818 0.18495055
木偶 0.9544676 1.2192737 1.438464 0.7056416 -0.72137004 -0.3990423 -0.84491974 1.4240693 1.020814 -2.0578783 -0.30554205 -0.28814957
陈香主 0.5101808 0.17522125 -1.3013412 1.707603 1.5899737 0.115190886 -0.14175685 0.859099 0.37923983 -0.7215552 -0.42201796 0.4211648
这招 -1.3530103 0.42744932 -0.22754848 -0.06298298 0.88266414 -1.4036589 -0.10749104 -0.75829273 0.15963788 -1.3451825 0.5171202 -1.1286463
群道 -0.24700965 -0.073495455 -0.3596074 0.39161715 -0.8393205 0.55460256 -0.68877316 -1.0556719 0.005732726 -1.5396706 0.051758736 -1.3620108
手铐 -0.4188174 -0.4996496 -0.906125 0.89277494 0.6017149 -0.44668818 -1.1161927 0.6785277 0.072144926 -1.8351885 0.09826258 1.7847933
文字 1.304236 2.5412958 0.11422257 0.08061966 0.21817498 -0.21784854 -1.0241957 1.0980204 -0.71945363 -0.57744074 0.56085527 -0.46667928
不想 0.033334766 0.16501625 0.01764887 0.71271455 0.21367718 -0.15737137 -0.9409381 -0.0518589 0.084622204 -0.22102922 -1.0135736 -0.7613811
永远 -0.3510287 1.0622412 0.18658869 0.3556121 0.95696956 -0.101898625 -0.8929133 0.1355231 0.038988065 -0.3479017 -0.841178 0.08225432
阁下 0.11180163 0.29201287 -0.66592693 -0.016053084 0.3418073 -0.027280007 0.11427211 0.553924 -0.3910675 -0.79264814 0.36474618 -0.7929881
高个儿 0.19735068 -0.055115532 -1.5922443 1.3662667 -0.85909384 -1.410609 -1.6520052 0.40283906 -0.33815512 -0.23156999 0.6137369 -0.43461376
衣服 0.111819565 -0.20221786 -0.1715131 0.9327529 -0.045563303 -0.46556377 -1.317752 0.29659352 0.5048446 -0.32227054 -0.19843602 -0.56440717
相助 -0.43485022 0.17383742 -0.46180177 -0.38222367 0.122474745 -0.16245307 -0.2814678 -0.17907244 -0.38363418 -0.87098897 -0.288264 -0.8080579
一道 0.16272031 -0.19513823 -0.866876 0.4807557 -0.64364827 -0.38626862 -1.0607074 0.42349544 -0.24903554 -1.2561132 0.22473128 0.72876626
踏上 -0.26997882 -0.30287525 -0.7689916 0.42406148 0.21573763 -1.2699635 -0.07853642 -0.5122451 -0.7336301 -1.1063343 -0.30622843 -0.0017901888
拱手 -0.32437173 -0.19065283 -1.2010313 0.71430165 0.06853013 0.32202265 -0.30569643 1.0341916 -0.65041196 -0.5730305 0.1594548 -0.6989134
明明 -0.9821064 0.119158156 -0.18069156 0.075042754 0.52578545 -0.035437837 -0.9893289 0.05332256 0.004009377 -0.69806725 -0.13140543 -0.2218867
遇上 -0.52726996 0.3769898 -0.25550014 -0.08259304 0.19175196 -0.10662535 0.21135138 0.3170275 -0.2166636 -0.71889424 -0.89194113 -1.0093175
放下 0.14820835 -0.615311 -0.6233563 0.5834171 -0.43416062 -0.644638 -0.6928989 0.6957895 -0.6333442 -0.75256073 -0.30546468 -0.22214952
力道 -0.17780258 -0.48421693 0.21950828 0.33544278 0.05654399 -0.28278166 -0.7231636 0.45079556 0.124478854 -1.4436219 0.646268 -0.40744922
眼光 -0.43164667 0.04794715 -0.9204766 0.5333673 0.46421155 -0.5099206 -0.12201265 0.3167894 -0.19922943 -0.51648635 0.053900167 -0.47696275
用意 -0.21575396 -0.4351392 -0.40717235 -0.24232237 0.6699234 0.21340062 -0.38193852 0.900073 -0.10786563 -0.73004484 -0.1432934 -0.91382337
用力 0.03958772 -0.1119311 -0.15077755 0.9222675 -0.085420564 -0.734685 -0.84660274 -0.18900709 0.49080002 -1.2435527 0.048089717 0.2589702
圈子 -0.16291952 0.5063825 0.40449595 -0.053142436 -0.25063822 -0.9418522 -0.5366606 -0.030747363 -0.78702074 -1.261824 0.44499424 -0.7992186
眼中 -0.16322713 0.34073424 -0.24588367 0.23843384 0.026098922 0.26124066 -0.5599169 0.8911688 0.23670249 -0.7157266 -0.5748646 -0.0024730554
高明 -0.43664503 0.4585114 -0.5997782 0.09384895 0.44518536 0.24896792 -0.059345514 0.40870914 0.3497395 -0.93663186 -0.19992572 -0.4037698
不算 -0.5505562 0.50929624 -0.2363161 -0.30563492 0.5759223 -0.3910672 -0.58396167 0.3455692 0.66835934 -0.6238221 -0.92199403 -0.21301065
怎会 -0.32039517 0.16864288 -0.3142167 0.58337414 0.44952506 -0.10736113 -1.1574236 0.6369679 0.34711197 0.11650341 -0.88217866 -0.7984136
逃走 -0.12753275 0.11078911 0.070713736 0.8180978 1.0555232 0.66819304 -1.1142352 -0.30626842 -0.05905149 -0.8551477 -0.24008706 0.030170897
大门 0.46143964 -0.011100827 -1.1029152 -0.5822488 -0.15621245 0.4018827 0.36594883 0.15366624 -0.32335874 -1.6599834 -0.05107367 -0.6697438
姊姊 0.4003586 1.2035042 -0.34843946 1.519172 0.4575065 -0.9973063 -0.109523356 -0.48452005 -0.2269302 -0.07249703 -1.1985854 -0.49576113
那日 -0.4874793 0.12759516 -0.44663075 0.085665844 0.5681528 -0.039481852 -0.00081792177 0.27966923 -0.28266746 -0.5200175 -0.8018901 -0.98161745
呼延万善 -1.1413046 1.2145559 -1.2802801 0.010437351 0.530128 0.47156525 -0.8845655 -0.10009627 -0.4303818 -1.0614411 0.820669 0.3260588
对不起 -0.73139167 0.38351014 0.06872447 0.5359445 0.16936524 -0.3717955 -0.9133522 -1.213271 0.5474134 -1.2879744 -0.64402544 -0.21479352
拳脚 -0.16876061 0.42988518 -0.5081834 -1.3599999 1.155295 -0.7916255 -0.516889 0.045428373 0.2664063 -1.5035954 0.28330064 -0.032044336
老爷子 -0.63760585 0.25857773 -1.177143 0.08306775 1.1437726 -0.39308184 -1.0046453 -0.32772854 -0.52979004 -0.3702427 -1.1038134 0.37565097
木兄弟 1.1426187 2.0296865 -0.67959756 -0.83266556 -0.06665764 -0.028229423 -0.12307557 0.5177024 -0.79587984 -1.2506115 -0.8898745 0.12867734
这套 -0.06453157 1.8614695 -0.14268106 -0.7209468 0.70906746 -0.550693 -0.4476456 0.027655605 0.49667853 -0.94798183 0.47405243 -0.4330084
重重 -0.080783926 -0.38737276 0.08423265 1.1394467 0.38310948 -0.48481655 -0.83714366 0.026559534 -0.25437024 -0.8862942 0.0049205646 0.04468215
跃起 -0.78323483 -0.26064175 -0.60734534 0.81729436 0.5816185 -0.87017816 -0.41256046 -0.4507047 -0.42474324 -1.073344 0.71525097 -0.60415864
无比 -0.39103532 -0.17487594 -0.058393057 0.3255419 0.06545479 -0.36613414 -0.14653365 0.048410624 0.7936813 -1.2569352 0.08741261 -0.80998605
敌人 -0.13285701 -0.15650818 -0.54329383 0.48872238 0.05123855 -0.58073074 -0.529289 -0.4092364 0.05853315 -1.2863741 1.2002801 -0.9232249
拼命 -0.26881713 -0.09933511 -0.24495518 0.35252562 -0.4819438 -0.59904075 -1.0688407 -0.53052497 0.2584386 -0.8279012 -0.4764273 -0.45987353
半天 -0.26613802 0.9209814 -0.025004797 0.06345343 0.29814857 -0.4775631 -0.39500996 -0.19666778 0.12086015 -0.79694754 -0.14767087 -0.22262834
听见 0.3253764 -0.11726297 -1.1510826 0.18737139 0.12776628 -0.19846803 -0.4131943 0.2975311 0.5273467 -0.5025075 -0.7346228 -0.3113474
转过 -0.1969553 0.45203358 -0.49945128 0.45683232 0.08653661 -0.23402849 -0.31485412 0.5372059 -0.11944742 -0.9600262 -0.2971512 0.5472042
抱拳 -0.01835042 -0.6915764 -0.69070536 0.7097823 0.18488427 0.20349112 -0.6111659 1.0548077 -1.1959736 -0.6027482 -0.29852358 -0.6491311
说起 -0.2780157 0.28547767 -0.6197655 -0.069674395 0.60292864 0.4324027 0.06523474 0.50678855 -0.53582585 -0.6252969 -1.1359875 -0.95532906
打死 -0.34770706 0.04659217 -0.86090773 0.95708585 -0.27870494 0.26842967 -0.9548307 -1.0641165 1.0649407 -0.96674067 -0.119083345 -0.7994885
朗声 0.29938728 0.11162157 -0.80104935 0.3697079 0.5172285 -0.16908759 -0.31336585 0.3574301 -1.1543701 -0.17164852 -0.66871977 -0.49760365
脑袋 -0.6971514 -0.72642887 -0.6183269 0.5048564 -0.26987138 -0.31841904 -1.0781504 0.38734 0.093529426 -1.4781257 0.18730313 0.39817908
初时 -0.4409479 0.44287625 0.16871195 0.3791175 -0.46425542 -0.19495608 -0.3632596 0.5923192 -0.52601784 -1.3272493 -0.037255708 0.045327887
泪水 -1.1196148 0.71904147 -0.5067015 1.0316843 -0.20507698 0.17592329 -1.1526566 0.5280835 -0.3063817 -0.3112164 -0.8495088 0.09697506
霎时之间 -0.013247032 -0.3540979 -0.67454815 0.13851868 0.28363365 -0.420486 0.016128248 0.10641295 0.30271178 -1.4486934 0.5050932 -0.4322251
十年 0.5540031 1.1006857 -0.38777393 -1.0398239 0.12116873 0.32932705 -0.3492346 0.67325497 -0.8022214 -0.90473574 -0.7710873 -0.6320895
出招 -1.4628558 0.5790333 -0.13129564 -0.18460368 0.45999762 -0.1637056 -0.51972604 -0.22740065 -0.3033245 -1.4588135 1.0220034 -1.1688467
名叫 0.12459744 -0.17022432 -0.5825543 -0.28150353 1.0133518 -0.040844098 -0.6103523 1.0603123 -0.3218692 -0.33181733 -0.9381534 -0.27591905
万万 0.10208518 -0.53939813 -0.06589867 0.03230971 0.76484114 -0.22350746 -0.5364637 0.55121005 0.056906216 -0.5294092 -0.08546067 -1.2270896
高强 -0.04966477 -0.31646225 -0.6876491 0.014641902 0.78832996 0.39120382 -0.16535662 0.9238601 -0.06293518 -0.6472752 -0.6487274 -0.88171643
想来 0.31179857 0.049852747 -0.56627524 -0.4447997 0.61060816 0.19587766 -0.7908849 0.317877 -0.27450362 -0.43992823 -1.0083847 -0.5603049
运气 0.08009762 -0.20193431 -0.17382249 -0.12846297 -0.40241262 -0.22141448 -0.23059602 0.29360044 0.610795 -1.5655043 -0.38171786 -0.30883402
如何是好 -0.07648281 0.018995447 -0.22561537 0.2177195 0.29182285 -0.080806255 -0.6507832 -0.122415446 0.25494418 -0.81387895 -1.0591698 -0.07111876
劲风 -0.20111439 -1.0918741 -0.28528342 -0.1074137 0.19375886 -0.64529973 -0.7107284 -0.50946915 -0.030893505 -1.4234791 0.3553423 -1.0833966
了不起 -0.42104352 0.3803476 -0.9994285 -0.25262854 1.0541143 0.087927386 0.14481013 0.0059116 0.14023414 -0.62048644 -0.76486176 -0.68910384
一听 0.23980686 -0.11662846 -0.82532203 -0.30322844 0.6712258 0.14135608 -0.45583776 0.38176957 -0.42224026 -0.88239497 -1.1847304 0.15887786
这场 -0.20215893 0.3864715 -0.7331403 0.58222175 0.17681248 0.09712446 0.20854723 0.07749629 -0.068201445 -0.7940887 -0.7841543 -0.2968853
夫妻 -0.12303618 0.47542286 -0.06105722 0.32402197 1.0122654 0.7966847 -0.5442178 0.009299077 -0.28530028 -0.67238754 -1.2660373 -0.32009783
喝酒 1.0292526 -0.14863521 0.03193226 -0.32702732 0.17693639 -0.74464643 -0.85891396 -0.49970055 -0.85149115 -0.33435103 -1.5633249 -1.5147923
本事 0.20503722 -0.4861416 -0.13745074 -0.31253698 0.15444995 -0.31299597 -1.0186967 0.08509199 0.5350234 -0.6790689 -0.7637658 -0.9515211
轻功 0.23756531 -0.014306692 0.41342747 0.26673037 0.1889991 -0.39844722 -0.6104323 0.36637345 -0.6497841 -1.1116606 -0.057935353 0.014562433
赞道 0.42431217 -0.10938672 0.502434 0.6662946 0.24642475 -0.74712384 -0.9997707 -0.83110684 -0.4997603 -0.8967369 -0.42552242 -0.5388489
这一 -0.018384596 0.10566078 -0.093575455 0.0011893064 0.2860205 -0.14029291 -0.32854563 0.0060815765 0.15186022 -1.4125904 0.66364217 -0.45775405
贵帮 0.55543524 -0.182658 -1.2927716 0.91264725 1.3110682 0.7572244 0.15095076 0.70215064 -0.3113483 -0.57029843 -0.3926711 -0.8768347
大病 0.19823018 0.99601924 -0.04222107 1.6943817 0.60238236 0.42900783 0.29290572 0.3851427 0.46223912 -0.81191576 -0.8857879 -0.6661965
西北 -0.75220937 0.35245124 -0.70571464 0.26955166 1.6585698 0.5294399 -0.30578774 0.19504254 -0.13652475 -0.5595498 -0.045876022 -0.6101067
招式 -1.5335034 1.179319 0.060780138 -0.16880037 0.76329076 -0.62800664 -0.105361104 0.17047815 0.016824387 -1.282944 0.82542926 -1.0667409
大师 0.6998381 1.7186674 -1.8298615 -1.1918628 0.09462888 -0.29527217 0.6151325 0.22923815 0.009078883 -1.4865845 -0.93097556 -0.028646393
总舵主 1.1225684 -0.96405756 -0.64855653 -0.4044074 -0.11675022 -0.8711081 -0.16378589 -0.6380397 -0.883708 -1.8860373 -0.5217039 -0.34949327
三月初 -0.61733276 1.3049335 -0.6199849 0.3870436 1.4099994 -0.88094354 0.22031005 -0.1903064 -1.4956139 -0.86993897 -1.6601777 0.4718258
梁自进 -0.5859976 -0.38827062 -1.5313249 -1.084402 0.3560389 -0.064599425 -0.731014 0.10605176 -0.34843844 -1.6227772 -0.27125663 0.5840323
令人 0.3000469 0.50863636 -0.6316743 0.095553964 0.21831068 -0.24553579 -0.16498387 0.28617507 -0.27301437 -0.6505749 -0.28121805 -0.19797565
自行 0.2536795 0.41437352 -0.1992979 0.06367192 -0.16779003 0.29044303 -0.48148936 0.8644393 -0.049053617 -1.0352883 -0.26090196 0.069042064
想要 -0.28740406 -0.034037784 -0.27485546 0.52435964 0.052650955 -0.1017221 -0.91537946 0.384219 0.54378295 -0.5059305 -0.506868 -0.33998552
清清楚楚 0.2946522 -0.011469492 -0.5697214 0.7771554 0.5077275 0.40258735 -0.69890857 0.24292167 -0.026637614 -0.49147594 0.025727242 -0.53756577
受伤 -0.64034015 -0.3022252 0.18425617 0.4858332 0.3061888 -0.48782647 -0.99371445 -0.055277377 0.23492114 -1.4320872 0.7412972 -0.3524536
双臂 -0.40152848 -0.49940345 0.23986532 0.24774957 0.28175673 -1.0114375 -1.1987141 -0.41137123 0.22381634 -1.2662226 0.052898016 -0.0075538624
全是 -0.81944793 -0.11591214 -0.47327858 -0.02012073 -0.051404987 -0.5634735 -0.50801504 0.26604035 0.20570938 -0.60611165 -0.4786751 -0.68237966
解开 0.018586097 0.5534371 0.017627142 0.94963485 -0.22767562 0.8753456 -1.2317113 0.054194372 0.2802075 -1.306165 0.7092233 0.04455527
小包 -0.82278746 -0.5663517 -0.8563126 1.237254 0.013897914 -0.8235752 -1.2668692 1.388347 -1.3014948 -0.5550997 0.83466333 -0.57805127
发觉 0.16928649 0.53993434 -0.26643002 0.5892518 -0.13200042 0.0938867 -0.2029112 0.4185367 0.033435598 -1.4413569 0.20512472 0.4321712
离去 0.49516594 0.5356817 -0.5738798 0.3589055 -0.2637796 -0.4158727 0.024474226 0.54628676 -0.77180564 -0.8943064 -0.67138577 0.13795558
江南 0.091389775 -0.026856212 -0.7185176 0.41431546 0.84494513 0.32978782 -0.76174515 0.5781138 -1.2958698 -0.013197944 -0.8420083 -0.88975525
双目 -0.39807132 0.14304811 0.11839899 0.79452 0.20481901 -0.0074905134 -0.7758637 0.24896638 0.32124773 -0.96295804 -0.22894004 0.017246652
好手 -0.046148315 -0.22311693 -1.4515119 0.23469523 0.16194588 0.14996144 0.051026102 0.15804726 0.12762824 -0.9538462 0.431919 -0.83072275
右臂 -0.5948217 -0.7290752 0.04958661 0.84166646 0.31423113 -0.4032088 -0.8406914 -0.19733626 0.005659361 -1.4913075 0.6861035 -0.4034354
背后 -0.39148623 -0.4438037 -0.26788187 0.5710862 0.0471144 -0.9375235 -0.67005694 -0.4136847 0.032177616 -0.7644614 0.048658323 -0.9795437
剑锋 -1.2541037 -0.54481685 -0.6767581 0.39727706 0.20533124 -0.45196128 -0.750181 0.19691186 -0.017193042 -1.7788271 1.5298877 -0.72313416
树干 -0.1725055 -0.5849821 -0.10942578 0.5482179 -0.038005568 -1.375211 -0.8670564 0.3728748 0.53078187 -0.8989552 0.008183896 -0.30055565
感激 -0.45630193 -0.07911767 -0.39683786 0.23312353 0.1949868 0.14973602 -0.48298702 0.2249932 -0.21952678 -0.5692109 -0.44599152 -0.82587767
得知 -0.23407044 0.63238335 -0.7262905 0.086591214 -0.13744122 0.2858168 -0.59209263 0.49969715 -0.7113965 -0.53418726 -1.0537751 -0.10188388
到来 0.21298647 0.28821477 -1.3117353 0.34989348 0.054302182 0.3012302 0.18799423 0.31583473 -0.42292628 -0.9010701 -0.46788028 -0.19676404
几声 0.71538126 -0.6257858 -0.57244915 0.9413687 0.5209444 -0.47575122 -0.37013668 0.62393373 -0.113183565 -0.63990664 -0.6755714 -0.070965864
眼泪 -0.43566358 0.8443273 0.077153474 0.97197175 -0.1843559 -0.43958756 -0.4780151 0.2075229 -0.1218214 -0.4475983 -1.183174 -0.25278804
二字 -0.7351715 0.5548599 -0.540425 -0.15777811 0.0973394 0.40839595 -0.6297912 0.8783136 -0.83911175 -0.7448216 -0.43012187 -0.0735467
住口 -0.32093656 0.5975738 -0.07891159 0.55347264 0.148312 0.08067117 -0.6378436 0.22793275 0.19823192 -0.9409489 -0.67532974 0.32932234
哪有 -0.38772845 0.5322504 -0.60378706 0.10225673 0.7634164 0.4391348 -0.66388994 -0.28439918 -0.14785647 -0.58420557 -1.2154963 0.023395425
可不是 -0.33016357 -0.15549158 -0.27947593 0.06254789 0.8417934 0.1878564 -1.0369883 -0.26052538 0.26159632 -0.7743461 -0.60075 -0.20911431
外号 0.23085651 -0.5545031 -0.42117715 -0.3376947 1.6158478 0.022385634 -1.0019228 0.9939791 -0.119728304 -0.23643455 -0.9623858 -0.80528426
义气 -0.32544363 0.2173106 -1.3934454 0.6001567 -0.8013869 -0.3160028 -1.4255942 -0.32248986 1.5481223 -0.08643263 -0.7279153 -1.8348805
小贼 -0.25428987 0.2131716 -0.18586841 0.32208526 0.28282282 -1.1282424 -1.2587577 -0.10361366 0.77067745 -0.14549272 -1.2698427 -0.5306975
香主 0.80101883 -0.39717224 -0.9593685 1.0048953 0.5290064 -0.2295121 0.84908915 0.7712023 0.10547392 -1.2142328 0.013340306 -0.68123
不许 -0.23674226 0.053131003 -0.1985534 0.17188741 0.7195188 -0.8249452 -0.3784776 0.05708028 -0.25935957 -0.6039524 -0.64238685 -0.14376675
船板 -0.4360426 -0.042522438 -0.32862753 1.0187869 0.30044097 -1.6537925 -0.5093952 -1.0394415 -0.3205631 -1.6034044 0.22340666 0.28819743
学到 -0.80141586 1.1071712 0.20307383 -0.37401637 0.83892167 0.25622767 -0.32277223 0.005125741 -0.15620425 -0.8977991 -0.03301611 -1.1231234
长江 -0.5317121 1.034941 -0.021173773 -0.20751818 0.8109198 -0.81927437 0.04749537 -0.84789175 -0.2509195 -1.0302756 -0.59010446 -0.42369103
土地庙 -1.7579997 1.2172309 -0.12742005 0.6302664 0.36919567 0.15097241 0.12676987 0.16861315 -0.44834307 -0.6282697 -0.40044174 -1.3482764
剑招 -1.3383367 0.7911001 -0.2563869 -0.1193072 0.08665292 -0.04131711 -0.42209172 0.28658938 -0.54561204 -1.5009484 1.2649823 -0.97994834
联手 -0.85831916 -0.022201192 -0.3121591 -0.87225133 0.6291338 0.21353284 -0.8409297 0.2851429 -0.6699878 -1.0804918 0.17035255 -0.78640115
还手 -0.72499335 0.021433882 -0.719816 0.14082657 1.2526013 0.21640007 -0.4135552 -1.0920826 0.36657476 -1.1986133 0.36031798 -1.143994
紫烟 -1.051066 0.41874048 0.2106885 0.32518664 0.5853533 -1.1036721 0.1054313 -0.20182423 -0.5621103 -0.9890179 -0.8673946 -0.47711766
渔村 0.47409597 0.1510758 -0.8477802 -0.5042464 -0.58181876 -0.63068485 0.08674674 -0.22848058 -1.2917721 -1.3614794 -1.5370195 0.07571166
会众 1.0583215 -1.0398544 -0.3420339 -0.21227331 -0.31240755 -1.1134822 0.08893089 -0.42230657 -0.98507965 -2.020977 -0.36525324 -0.7625399
司徒大哥 1.2904936 0.23768543 -1.3408024 0.7498503 1.6094538 0.57565844 -0.06563679 0.863168 -0.14176093 -0.17740162 -1.0428056 -0.99577683
龙木二 0.9191368 1.4648147 0.33688548 -0.4369417 -0.3848314 -0.16164528 -0.7514576 0.4415292 -0.77677304 -1.4576517 -0.77224284 0.48739827
世上 0.25940937 1.1391668 0.1377923 0.17347233 0.25396287 -0.4234772 -0.7762496 0.656007 0.3398695 -0.14055406 -0.64878887 -0.35634446
汴梁 -0.17864701 0.38142073 -0.7896425 0.5267401 -0.5897606 -0.4844319 -1.5350907 1.2478912 -0.269069 0.47382063 -0.5459309 -1.5459822
这人 0.14951196 -0.45175278 -0.30101314 0.94379526 0.53872216 -0.3023665 -0.38580167 0.5588122 0.16652004 -0.99149156 -0.44664353 0.3166148
身材 0.3749711 -0.08485525 -0.16930827 0.7467443 0.0010523499 -0.25490847 -0.49936813 0.60272914 -0.72209597 -0.5145202 -0.52914023 -0.29105568
要害 -0.55216146 -0.57721627 -0.21543756 -0.071518674 -0.20425814 -0.48184705 -0.89861786 -0.19002847 -0.28095844 -1.4179636 0.8833797 -1.0119072
越来越 -0.23343177 0.43039602 0.27099928 -0.112743914 -0.34089065 0.0422102 -0.24244298 0.46019602 -0.5864691 -0.96013165 -0.24038467 -0.88058186
拔出 -0.27662972 -0.8286213 -0.5736971 0.472991 0.31174165 -0.5011073 -0.9834384 0.019851953 -0.3985859 -0.6936659 0.114479415 -0.47512075
一身 -0.163854 0.09784877 0.34227583 0.16338523 0.27105653 -0.54414725 -0.82952243 0.14420453 0.17592263 -0.6848336 -0.26855546 -0.7315431
一株 -0.21423332 -0.27548376 -0.033382203 0.7352517 -0.80885494 -1.1131328 -0.8581286 0.39896187 0.019180715 -0.78150105 -0.3393448 -0.37359175
大树 0.3028375 -0.19901338 -0.29458237 -0.40699935 -0.34189752 -1.131997 -1.0148704 -0.034227 0.26837707 -0.86882 -0.13151215 -0.29551634
手下 -0.67556953 -0.30727905 -0.5946098 0.13424827 0.5855921 -0.44592798 -0.38063452 0.5536975 -0.04555719 -0.7025989 0.3028407 -0.8003677
林中 0.3619164 -0.3746926 -0.38423634 0.8278462 -0.27988422 -1.1052268 -0.18101865 -0.08582855 -0.8917187 -0.8956375 0.0513417 -0.6213692
号令 0.45216572 -0.41462007 -1.3163346 0.31059128 0.78187096 -0.057561964 0.5810605 0.60306066 0.09370358 -1.1702499 -0.8547576 -0.049706373
剑柄 -0.8450042 0.008844459 -0.85098344 0.7803294 0.14667344 0.38167322 -0.57084537 0.31219643 -0.56236225 -1.1264379 0.80179524 -0.28573486
